100 300
humboldtgesellschaft -0.26666 0.040284 0.12804 0.14618 -0.1464 -0.18956 -0.44564 -0.34968 0.058964 -0.28231 0.25456 -0.23731 0.54982 -0.044671 0.010305 0.10525 -0.15497 0.19661 -0.39971 0.10668 0.1552 0.16514 0.011238 -0.089504 0.050697 -0.13826 -0.22303 0.13225 -0.048704 -0.10608 0.18249 0.18118 0.24473 0.12354 0.15003 -0.065446 -0.04525 -0.0067442 0.085196 0.40133 -0.10129 0.11311 0.19231 -0.12586 0.096769 0.23131 -0.10334 0.050581 0.086017 -0.29729 -0.13032 -0.23797 -0.22046 -0.10767 0.054273 0.018599 -0.33019 -0.1598 0.24205 -0.32742 0.31075 -0.11392 0.1022 -0.096491 -0.19655 -0.17611 0.031694 -0.10834 0.065123 0.12415 -0.46111 0.16102 0.16704 0.035218 0.058265 -0.060783 -0.059973 0.42259 0.1437 -0.14821 -0.035945 0.33894 0.12116 -0.070197 -0.14195 -0.13226 0.044021 0.431 -0.32223 -0.077424 -0.12886 0.13016 -0.23583 -0.03127 0.28641 -0.24532 0.24766 0.0068488 -0.23976 0.15889 -0.045585 0.0721 0.046483 -0.12141 -0.24126 0.1985 -0.3805 0.15023 0.012157 -0.11911 -0.30776 -0.21711 -0.035894 -0.20813 0.15859 0.30967 0.28385 0.066214 -0.44981 -0.1647 0.049681 0.19188 -0.051504 -0.36031 -0.26483 -0.048091 0.025345 0.20143 -0.062484 0.016364 0.016864 -0.22663 -0.231 0.06525 -0.22941 0.0012277 -0.11691 0.20243 -0.07592 -0.1065 -0.32975 0.45897 0.20045 0.48748 0.040879 -0.032704 0.23873 0.12076 0.0381 0.0033156 0.22826 -0.25068 -0.24834 0.40884 0.03625 -0.11592 -0.4377 0.25323 -0.048476 0.16146 -0.22667 0.11034 -0.33811 0.28466 -0.051756 -0.14404 0.073986 -0.0084336 -0.39786 0.14574 -0.088891 -0.2643 0.42291 -0.30901 0.069367 0.067477 0.13045 -0.096054 0.070238 -0.020412 -0.087552 0.23856 0.16546 0.14516 -0.087822 0.40451 0.072492 -0.087759 -0.080188 -0.20707 -0.077273 -0.16711 0.14343 -0.1196 -0.64915 -0.19309 -0.15966 0.16202 -0.20667 -0.7199 0.042819 0.045546 0.28445 -0.34738 0.11663 0.19083 -0.45708 -0.13126 0.33022 -0.01387 0.29071 0.035423 0.46768 -0.046497 -0.39137 0.062295 0.25539 -0.16581 0.032635 0.05342 0.040426 0.36949 0.036314 0.47364 -0.16281 0.24839 0.23365 -0.026993 0.080535 -0.10283 0.43784 0.056487 -0.084827 0.050002 -0.032689 -0.17519 -0.10634 0.051967 -0.095303 -0.077229 0.1013 -0.18259 -0.43895 0.14262 0.11598 -0.11264 0.17402 -0.034307 -0.48106 0.33191 -0.49381 0.022331 -0.26233 0.061434 0.36516 -0.50204 -0.12444 0.096781 -0.20108 0.23887 -0.16467 -0.20036 0.0095561 0.0022933 0.039141 -0.15761 -0.18086 0.092425 -0.30217 -0.15083 0.027822 0.38464 0.21306 -0.22174 0.25031 0.062143 -0.086393 -0.36864 -0.21202 0.1199 0.15569 -0.099845 0.16748 0.26321 -0.1504 -0.1426 -0.1027 -0.34875 -0.07317 -0.31282 -0.039376 -0.056169 0.24283 0.24653 -0.30875 -0.39604 -0.066224 -0.12179 0.047884 0.093527
gallersbach 0.080477 0.79163 -0.16786 0.42411 -0.09144 0.35266 0.12383 0.051928 0.10102 -0.089054 0.42056 0.34383 0.090114 0.13584 -0.18518 -0.43333 -0.44391 0.10043 0.22672 0.064636 -0.55557 0.55387 0.16946 -0.090025 -0.21717 0.25024 0.42338 -0.023455 0.095775 0.27283 -0.064833 -0.27926 -0.011054 0.25929 -0.14065 0.35978 -0.17225 -0.2757 0.23624 -0.25163 -0.025609 0.028224 0.40319 0.54538 -0.30463 0.18726 0.23646 -0.011094 0.061331 -0.070294 -0.29325 -0.24292 -0.38843 -0.18638 -0.013494 0.35864 0.14781 -0.13756 -0.0017839 -0.04993 -0.28214 -0.22587 0.30858 0.00771 -0.30935 -0.29834 -0.18063 0.026886 -0.19715 0.19072 0.030051 -0.20818 0.079198 0.0020854 -0.23155 -0.47314 -0.021993 0.45665 -0.032152 0.58254 0.35998 -0.54918 -0.14494 0.005835 0.11067 -0.068933 -0.12812 0.0053594 -0.039388 -0.21562 -0.21202 -0.067376 0.13194 -0.28993 0.18792 -0.98055 0.59423 0.32154 -0.066991 0.012279 -0.030046 -0.10383 0.24355 0.39314 0.37452 -0.15589 -0.58129 0.23589 0.034168 -0.24013 -0.1169 -0.010137 0.13691 -0.47417 -0.11285 -0.4995 0.19205 -0.075212 -0.14214 0.17943 -0.43778 -0.096814 0.24413 -0.18483 -0.29731 0.067318 0.42185 0.21194 -0.31061 0.21974 0.13198 -0.57484 -0.093049 0.7863 0.186 -0.12183 -0.17361 -0.043527 0.20646 0.40251 -0.16023 0.20377 0.72721 0.41527 -0.070043 0.14155 0.35358 -0.15659 -0.27527 0.18189 0.27868 -0.086439 -0.15062 -0.14611 -0.64897 -0.21065 -0.37908 0.68107 0.36073 0.44087 0.2463 0.17031 -0.7541 0.088469 -0.18863 0.079399 -0.51086 -0.11838 -0.073137 -0.010392 -0.18652 -0.22122 -0.13418 0.23479 0.11664 -0.40958 0.037253 -0.43088 0.056125 0.11426 -0.24753 0.046065 -0.18661 -0.14377 0.13259 0.5992 0.30765 -0.28051 -0.52371 0.099008 0.013347 -0.55651 -0.18399 0.22074 -0.39037 -0.26004 -0.072044 0.42455 -0.53035 -0.29026 -0.37207 0.18662 0.28591 0.34897 -0.041281 0.45639 0.076204 -0.15509 -0.12915 -0.048934 0.46904 -0.23132 0.36565 0.24055 -0.45195 0.189 -0.1949 0.44525 0.43174 -0.23876 0.19735 0.12558 0.25346 0.50395 -0.35106 0.89375 0.2653 -0.02693 -0.41508 0.098269 -0.0088423 0.039267 -0.20141 -0.039317 -0.1879 -0.49528 -0.33444 -0.47666 -0.087185 -0.070957 -0.15527 0.086889 -0.37422 0.21372 0.10631 -0.0072131 -0.12469 0.47677 0.040449 -0.34896 0.20455 0.098249 0.15339 -0.099126 -0.48176 -0.21638 0.227 0.10276 -0.11818 -0.12943 -0.0090514 -0.44068 0.62043 0.20746 0.24489 0.27323 0.38864 0.24937 0.22989 0.031944 0.40117 0.31628 -0.062321 -0.17526 0.15256 0.53036 0.021161 -0.020424 -0.33842 0.1912 -0.10881 0.1654 -0.16821 0.10237 -0.24114 -0.51872 -0.13947 0.010376 -0.16275 0.17955 0.095171 -0.30102 -0.23478 0.35373 -0.037553 -0.48608 0.20652 0.19599 0.12572 0.44913 
risikopositionswert -0.24516 0.18395 0.057227 0.10177 0.20273 0.27426 0.010595 0.24426 -0.21883 -0.052036 0.19679 0.35386 0.023694 -0.02023 -0.46429 -0.18163 -0.46069 0.10061 0.18773 0.0083536 -0.10441 0.37818 0.015926 0.33303 -0.27669 -0.46396 -0.13777 0.35296 -0.31523 -0.08508 0.4273 0.20869 0.032498 -0.065918 0.58285 -0.1209 0.096218 -0.060949 -0.29734 0.12421 -0.020003 -0.14642 0.13125 0.21811 -0.022305 -0.047422 0.1053 -0.47999 -0.28283 -0.32907 -0.18467 -0.13874 -0.37308 0.14997 -0.1514 0.035968 -0.051868 -0.44847 0.044359 -0.1914 -0.24021 0.11892 0.40055 -0.057939 -0.36538 0.41901 0.26824 0.16381 0.11969 0.22239 0.18434 -0.12819 0.45203 -0.14257 -0.29231 0.099282 0.0089098 0.16908 -0.04619 -0.14427 0.117 0.26554 0.041375 0.14592 0.14414 -0.006172 -0.040201 0.12065 0.085929 -0.22188 -0.19635 -0.24542 0.015493 -0.073819 0.36725 0.14291 -0.25925 0.27618 0.14658 0.14729 -0.34503 -0.027325 0.14369 -0.32524 0.047137 0.22301 0.21277 0.12645 -0.10112 -0.37491 -0.46715 -0.27583 0.040465 -0.39308 0.038556 -0.39523 -0.28954 0.15212 -0.59988 0.42051 -0.096161 0.51408 -0.39387 0.15941 -0.022378 -0.25707 0.35943 0.059694 0.62859 0.45096 0.35792 -0.0077278 -0.061835 0.31018 0.32508 0.027727 -0.13693 -0.017292 0.030008 -0.3771 -0.5518 0.12879 -0.24625 0.2105 -0.70934 0.41905 0.41512 0.29456 -0.2088 0.25709 0.24184 -0.14931 -0.65744 0.44457 -0.86296 -0.37242 -0.16363 0.087213 0.36656 0.26389 0.12405 0.32588 -0.10168 0.20373 -0.25256 0.033219 -0.49965 -0.24842 -0.50345 0.1977 0.1341 -0.42849 -0.039984 -0.31626 -0.052446 0.097026 0.50201 0.239 -0.16868 0.27688 0.31738 0.004755 -0.34417 -0.21967 0.060669 0.040322 0.39929 -0.23347 -0.2496 -0.11809 0.30405 -0.024151 0.077803 0.22308 -0.54154 -0.096638 -0.34477 0.242 -0.10065 0.28098 0.24983 0.2448 0.59216 -0.50789 -0.051388 0.25753 -0.53056 -0.18952 0.026598 0.4026 0.37532 0.1759 0.14127 -0.64976 -1.0649 -0.11833 -0.072535 -0.0094113 -0.0041654 0.55179 0.51571 -0.31085 0.16826 0.60498 0.075461 -0.024962 0.30058 -0.09434 -0.28855 0.17229 0.28236 0.53991 -0.36256 -0.014803 0.1306 -0.2022 -0.34697 0.023744 0.25955 -0.36222 0.21357 0.36554 -0.14807 0.051867 -0.34552 0.047013 0.0055532 0.29409 -0.028269 -0.56472 -1.0281 -0.0513 0.10777 0.15854 0.24644 -0.061098 0.20268 -0.48549 -0.016063 -0.028105 -0.10633 0.0013735 0.024287 -0.020348 0.00056593 -0.0027006 -0.063273 -0.42646 -0.054842 -0.019475 0.19142 0.58831 0.47697 0.048702 0.15118 -0.38578 0.6479 -0.087528 -0.20823 0.5429 -0.25431 0.055342 0.13973 -0.30727 0.12491 0.10387 0.34344 -0.48757 0.43741 -0.31243 0.52818 0.056821 0.060012 -0.30338 -0.05484 -0.13158 -0.20227 0.04064 0.055246 0.11558 
„sekunde -0.20604 0.58838 -0.19481 -0.053146 0.15115 0.17683 -0.18223 -0.14373 -0.31181 0.20844 -0.051601 0.085365 -0.28312 -0.4515 -0.27489 0.57361 -0.43586 0.41996 -0.14613 -0.12562 0.46017 0.74726 -0.11333 -0.11401 -0.011908 -0.21611 -0.34033 0.62689 -0.42347 -0.26877 -0.12449 -0.14001 0.42275 -0.17233 0.18743 -0.034413 0.10496 0.10697 0.15516 -0.36102 -0.098509 0.36544 0.064284 -0.42969 -0.20065 0.51436 -0.045212 -0.032974 -0.12647 -0.83559 0.47424 -0.036169 -0.11868 -0.069443 0.18441 -0.41404 0.45836 0.64141 -0.51095 0.11587 0.28321 -0.13752 -0.057666 0.43635 0.11966 -0.57916 0.48126 0.38684 0.25162 0.33919 0.031 0.58932 -0.35411 0.027445 -0.02093 -0.095737 0.66566 0.54588 -0.25198 0.60988 -0.062064 -0.46738 -0.086057 -0.28749 -0.065679 -0.49612 0.30733 0.061145 0.48612 -0.06321 0.53985 0.32752 0.22857 -0.18225 0.18601 -0.0089362 0.12314 -0.1096 -0.46221 0.041487 0.37226 -0.032599 0.13659 -0.013739 -0.37309 0.15124 0.13514 -0.048934 -0.45904 0.080904 0.026726 0.55825 0.051176 0.43095 -0.047684 -0.3333 0.15637 0.10854 -0.43923 0.31571 -0.3236 0.66501 -0.39105 0.2716 -0.35476 0.068303 0.091828 0.42626 0.085914 0.38726 -0.11647 -0.54617 0.085279 -0.092318 -0.02185 -0.20517 -0.037292 0.20642 0.75654 -0.02976 0.0048547 -0.55944 -0.23922 0.28347 0.25743 0.056759 0.32423 0.08423 -0.44504 0.17668 0.11053 -0.17892 -0.69391 -0.26889 0.19732 -0.023452 -0.37135 0.085171 -0.10762 0.18342 0.23629 -0.059294 -0.0163 0.077769 0.20628 -0.20436 -0.44096 -0.26422 0.13321 0.22672 0.36689 -0.15862 -0.13517 -0.26947 0.10156 -0.1337 -0.03094 -0.18937 -0.14225 -0.21822 -0.3164 0.32229 0.064136 0.50968 -0.55626 0.0050428 -0.2379 0.24406 0.076539 0.14757 0.19159 0.14611 0.40754 0.13028 -0.074086 -0.26108 -0.32076 0.073135 -0.084445 0.12772 0.0052081 0.30454 0.38416 -0.27941 0.16332 0.7001 0.043011 0.23361 0.1153 0.19948 1.0206 -0.052137 -0.047783 -0.033784 -0.46804 0.1422 -0.48751 -0.32763 0.17452 0.20313 0.18713 -0.40939 -0.15168 -0.11963 -0.62812 0.57938 -0.68382 -0.45004 -0.44538 0.21323 -0.048815 0.28463 0.12244 -0.25197 -0.057387 0.73908 -0.071005 0.029999 -0.028734 -0.10664 -0.089272 0.096957 -0.24714 0.406 -0.66016 -0.31736 0.16247 -0.017439 -0.30648 0.33289 0.19657 -0.2719 0.26288 0.46979 0.063016 -0.43167 0.53656 -0.47467 -0.10719 0.55653 0.06186 -0.33702 -0.065825 0.36366 0.14919 0.19681 -0.51917 0.25342 -0.23373 -0.1525 0.69809 0.19146 0.48779 0.26598 0.39611 0.39802 0.44774 0.61472 -0.141 0.26048 0.43942 -0.13314 0.19617 -0.60221 0.81401 -0.30175 -0.016624 -0.39427 -0.087681 0.91181 -0.073158 0.16221 0.29566 0.31617 0.39125 0.033035 -0.44216 -0.068008 0.29054 -0.037845 
gallesium -0.26572 0.26515 -0.24803 -0.31812 0.0041032 0.52055 0.030162 -0.032373 0.23904 0.47322 -0.34606 0.076019 -0.29552 0.27128 0.082733 -0.14576 -0.22979 0.12293 -0.12923 0.34238 -0.40538 -0.027362 0.22967 -0.31093 -0.12083 -0.20605 0.31887 -0.038134 -0.46149 -0.37639 0.28428 0.068179 0.11912 0.16543 0.071509 0.19162 -0.25811 0.056561 0.41291 0.072605 0.14751 0.055136 0.21319 0.42111 -0.059508 -0.29062 0.54862 -0.044649 0.16011 0.071313 -0.012875 0.5898 -0.14193 0.534 -0.27015 0.081982 0.015248 0.093826 0.1095 0.090461 0.21731 -0.099493 0.18866 0.15837 -0.36742 0.29203 -0.34882 0.2888 -0.10088 0.10455 0.074346 -0.31288 0.17675 0.35762 0.02345 -0.27747 -0.064041 -0.081879 0.17306 0.51362 -0.015821 -0.36358 0.038505 -0.012559 -0.35788 0.34335 -0.072415 0.13439 0.083217 -0.1436 0.015606 0.012376 -0.19145 -0.49348 -0.54685 0.17972 0.52051 -0.13035 0.33997 -0.099608 -0.43844 -0.23516 -0.098436 0.16975 -0.77227 0.58317 -0.17715 0.13211 -0.062862 0.065863 0.028414 -0.49508 -0.11054 0.25958 -0.20639 -0.40327 0.35271 0.045967 -0.11417 -0.1962 0.077844 0.26005 0.31357 -0.051227 -0.28472 -0.21873 0.013496 -0.15312 0.36748 0.40111 0.14881 0.035291 0.3301 0.41939 0.057966 -0.26193 -0.43019 0.15978 0.25418 -0.16151 -0.5099 0.18406 -0.14772 0.71546 0.15293 0.041338 0.5984 -0.098599 -0.23987 0.28961 0.21435 -0.19913 -0.42545 -0.27181 -0.14803 -0.56534 0.11386 0.13872 0.52568 0.19626 0.17742 -0.18219 -0.30896 0.53265 -0.17389 -0.083253 -0.25149 -0.14765 -0.38292 0.81319 0.066391 0.099523 0.048208 -0.02409 -0.27333 -0.03186 -0.22804 -0.31865 -0.20642 0.08205 -0.083779 -0.15367 -0.38674 0.052686 0.18255 0.2699 -0.22934 -0.48889 -0.29414 0.13173 -0.39308 0.070649 0.29743 0.17386 -0.1987 -0.25362 -0.36454 0.3672 0.014226 -0.13383 -0.14496 -0.14758 0.21059 0.13099 0.063403 0.45851 -0.081297 -0.26701 -0.085388 0.15704 0.16552 0.08983 0.66674 0.028366 -0.17076 -0.061631 0.351 0.065948 0.27584 0.23829 0.27158 0.29894 0.070253 0.11429 -0.25722 -0.2059 -0.034355 -0.19064 -0.45855 0.22196 0.018711 0.4069 -0.27033 0.22318 0.2245 0.26587 0.16511 -0.065382 0.22905 -0.53306 -0.14235 0.055107 -0.47545 0.066929 0.6174 0.35574 -0.045578 0.37901 0.21651 -0.095715 0.2022 -0.082606 -0.22966 -0.24241 -0.10904 -0.13076 -0.099334 -0.26787 -0.2464 -0.25308 0.14182 -0.37918 0.22304 -0.45006 -0.019286 0.0034709 -0.048542 0.33599 0.27788 0.10128 0.026103 -0.10108 0.7644 0.12545 0.5311 0.034688 0.00033089 0.22505 -0.26347 0.19227 -0.028524 -0.02399 0.37276 0.22532 -0.084327 -0.14901 -0.15919 -0.45677 -0.42379 0.15642 -0.046222 -0.031674 0.56523 0.17926 -0.36863 -0.011614 0.0099825 0.71382 -0.40614 0.068877 
kleindemsin -0.22493 0.18017 -0.48543 -0.42016 -0.097087 0.32046 -0.42731 -0.32815 0.16939 -0.088567 -0.29404 0.24114 0.54403 -0.21148 -0.1329 -0.20914 -0.29783 0.25429 0.14714 -0.41576 -0.27172 0.036034 0.71272 -0.60203 0.085399 0.088923 -0.10856 -0.058032 -0.030981 0.37582 0.046885 0.40455 0.02275 0.012098 -0.0084241 -0.1317 -0.36082 -0.44559 0.12601 -0.10687 0.24867 -0.24776 0.001722 0.30439 -0.19196 0.41824 0.0052761 0.46818 0.28378 -0.0099635 0.18431 -0.080918 -0.18043 -0.28366 -0.068325 0.31695 -0.23036 -0.3846 -0.51166 0.29474 -0.2761 0.32322 0.40277 -0.34723 0.0067898 0.44432 -0.026414 -0.25814 0.14316 0.088029 -0.3203 0.286 0.35297 -0.1632 -0.068549 -0.16377 0.22599 -0.049185 0.54366 0.15033 0.08335 0.046348 -0.02201 0.052864 -0.0035144 -0.043295 -0.182 0.42612 -0.17429 0.049951 -0.26983 -0.22314 0.28421 0.10025 -0.011046 -0.088472 0.17115 0.33634 -0.15149 -0.041066 -0.28514 0.083036 -0.0197 0.0274 0.14831 0.18659 -0.43016 0.17616 0.43135 0.05091 -0.017429 0.41468 0.31249 -0.21153 -0.1505 0.35543 0.40019 -0.029824 -0.18677 0.062474 -0.0079622 -0.2751 0.54669 -0.48628 -0.17992 0.25492 0.15273 0.37308 -0.2157 -0.044446 -0.27597 -0.3958 0.091775 0.14912 0.071172 -0.1949 -0.13735 -0.31127 -0.32403 0.0057481 -0.062347 -0.031508 0.36671 -0.37279 0.0037709 -0.31988 -0.46225 -0.36424 -0.2958 0.031447 -0.14076 -0.37536 -0.081355 0.23712 -0.12392 -0.47291 -0.012369 -0.15296 0.11854 0.33997 0.049921 0.098417 -0.49094 0.32796 -0.045773 0.19045 -0.16918 0.11856 -0.079234 -0.15282 -0.065482 -0.4086 0.21934 0.32544 0.0044295 -0.33797 0.0069209 -0.062858 0.15642 0.11835 -0.042575 -0.046868 0.25334 -0.06506 -0.064682 0.11943 1.1706 -0.35712 -0.57011 -0.24135 0.18404 0.056926 -0.38603 -0.22821 -0.020714 -0.085366 -0.031424 0.29849 0.085015 -0.18064 -0.058181 0.24417 0.43403 0.052089 0.097328 -0.13307 0.16387 -0.31157 0.21758 0.21239 0.11172 -0.22723 -0.007987 -0.011455 -0.17838 0.15045 0.092895 -0.25839 0.2228 -0.093006 0.12876 0.26385 0.053404 0.030369 -0.12963 0.15119 0.32628 0.17538 -0.023065 0.26795 -0.11329 -0.20618 -0.011632 -0.36114 0.36687 -0.21334 -0.13599 -0.17548 -0.21345 0.24055 -0.032343 0.021034 -0.17739 0.0101 0.064711 0.10001 0.24872 -0.35153 0.13764 0.14472 -0.077079 0.16517 0.15378 0.20298 0.02095 -0.36172 0.54212 0.025369 0.075945 -0.05169 0.18741 -0.49242 0.040331 0.16922 -0.14487 -0.36498 0.3585 0.04638 0.13975 -0.29788 -0.0096244 0.36908 0.26613 -0.39782 0.00085456 0.026047 0.58895 -0.35933 0.011115 0.79667 -0.10445 0.085227 -0.066017 0.10957 -0.10823 -0.28439 -0.71639 -0.037986 -0.43473 -0.048854 0.0010684 0.54121 -0.32248 0.15465 -0.53703 -0.60889 0.041507 -0.058639 0.36153 0.21406 
eboracensium -0.020991 0.55938 -0.34298 -0.19212 -0.011686 0.84019 -0.44418 -0.29846 0.3139 0.84412 0.12612 0.20239 -0.036859 0.13065 -0.15723 0.49147 -0.42409 0.50096 -0.16446 -0.32388 -0.39652 -0.026031 0.10475 0.0042286 -0.14939 -0.15195 -0.031616 -0.04279 -0.48188 -0.49033 0.41184 -0.05592 0.048942 -0.16083 -0.33243 -0.38564 -0.19537 -0.38184 0.21163 -0.05561 0.41592 -0.19442 0.36759 0.15412 -0.030404 0.24731 0.33031 0.036313 0.48066 -0.38232 0.15215 0.44049 -0.020698 0.54307 -0.14624 0.024583 0.09332 -0.23186 0.34092 -0.17107 -0.04969 0.11827 -0.074814 -0.0027379 0.14025 0.63908 -0.3497 0.27983 0.039872 0.00063474 -0.54089 0.070181 0.37891 0.23821 0.040927 -0.51288 -0.26906 0.15022 -0.032125 0.30112 -0.12148 -0.16013 -0.071815 -0.048145 -0.070584 -0.1999 0.42833 0.025117 -0.40936 -0.60172 -0.12794 -0.81448 0.10678 -0.29131 0.090103 -0.25379 0.54187 -0.056619 0.1464 0.19337 -0.060943 0.1522 0.29771 -0.12411 0.47965 0.1071 -0.56283 0.12575 0.38162 0.16008 -0.075288 -0.04043 -0.10987 0.28176 -0.026372 -0.18806 0.77716 0.031952 -0.032278 0.21144 0.033327 -0.08063 0.33144 -0.11595 -0.21342 0.49994 0.10711 0.29302 0.36372 0.18511 0.55121 -0.22601 0.16793 0.14296 -0.19032 -0.073982 -0.25276 0.25008 -0.011625 0.2982 -0.90324 0.052819 0.074094 0.74212 0.061938 0.03991 0.8102 -0.043167 -0.12864 0.38719 -0.012789 -0.21931 -0.46735 -0.25649 -0.14729 -0.61355 -0.30898 0.029833 0.42883 0.603 -0.19819 -0.53669 -0.11774 0.50407 0.199 -0.61783 -0.2402 0.046602 -0.44964 1.0484 -0.65066 -0.26241 -0.2149 -0.076641 -0.0091432 0.3491 0.064753 -0.29 -0.19206 0.3599 -0.1549 -0.015936 -0.0091645 0.17221 0.20893 -0.043265 -0.2034 -0.46866 -0.1333 0.089617 -0.13049 0.12305 0.23218 0.0084555 0.047447 0.094285 -0.25393 0.32485 0.33872 -0.39284 0.24144 -0.085296 0.2474 0.50334 0.1772 0.055641 -0.39351 -0.62057 0.17023 -0.14816 0.29556 -0.3167 -0.29824 0.21773 -0.19982 -0.10633 0.21821 0.11464 -0.11844 -0.31044 0.21751 0.34976 -0.047838 0.2658 -0.63925 -0.42617 0.068697 0.00085523 -0.54678 0.41304 0.42366 0.064477 -0.40922 0.14272 -0.19012 -0.015213 0.11137 0.083198 0.19622 -0.60954 0.46208 0.12327 -0.25289 -0.14492 -0.015783 -0.67126 0.29726 0.14894 0.19176 0.038421 0.26972 0.048686 -0.23332 0.10528 -0.40285 -0.24119 0.051054 -0.47759 -0.25403 0.27639 0.13273 -0.011549 -0.15709 -0.36005 -0.24194 0.3017 0.018652 0.24881 0.72379 -0.11262 0.207 0.47768 0.55778 0.19888 0.13867 0.56911 0.22824 -0.050666 0.046878 0.32008 -0.024118 -0.56005 -0.0043252 -0.092958 0.13542 0.31121 -0.29742 -0.26748 0.012448 0.37323 -0.063608 -0.14296 0.62479 0.2788 0.15283 -0.027421 0.093862 0.51817 -0.238 0.054251 
qorig 0.02042 0.37212 0.04897 0.20202 0.38449 0.33715 -0.049862 -0.17892 0.24565 0.065482 0.21762 -0.24782 0.48194 -0.32283 -0.28625 -0.34863 -0.60302 -0.25977 0.055345 0.66929 0.096015 0.25657 0.039917 0.65865 -0.026557 0.064417 -0.65088 -0.062687 -0.19037 -0.52475 0.37732 0.10478 0.23611 -0.38715 -0.041736 -0.054302 0.46425 -0.34724 0.083494 0.22461 -0.27936 0.48016 -0.16157 0.1467 -0.05146 0.0080622 0.41033 0.22195 -0.33819 -0.25367 0.40721 0.032927 0.10871 -0.10325 0.42451 -0.012367 -0.46398 0.037534 -0.35071 0.14755 -0.43547 -0.60207 0.33407 0.13367 -0.31528 -0.74384 0.26412 0.41491 0.0067675 -0.20169 -0.065186 -0.19994 -0.35208 0.35473 -0.39066 -0.1048 0.2585 0.46913 0.029975 -0.30462 -0.27487 0.13882 0.17495 0.19634 0.22903 -0.22687 -0.29375 0.46917 0.29638 0.013257 0.098558 -0.23715 0.22001 -0.035057 0.040745 0.24149 -0.084148 0.217 -0.03091 0.19213 -0.15879 0.027204 0.0064629 0.060807 -0.31231 0.10966 0.18315 0.2446 0.78311 -0.02535 0.34161 0.053843 0.062146 -0.39929 -0.12164 -0.44656 -0.33855 0.15415 -0.056362 -0.10757 0.057397 0.22628 0.077421 0.1349 -0.43912 0.18316 0.15066 0.2669 -0.067521 -0.02114 -0.0928 -0.33059 0.12076 0.02598 -0.15946 -0.17127 -0.54847 -0.091344 -0.063918 0.0059012 -0.10086 0.29256 -0.031506 0.42691 0.026716 -0.47714 0.13186 -0.1199 -0.27015 0.15858 0.261 0.28376 -0.24426 0.011835 -0.14171 -0.032657 -0.35558 -0.32444 0.26329 0.36288 0.060537 -0.057625 0.28574 0.028341 -0.25891 -0.24691 -0.40733 -0.11115 0.056472 0.33011 -0.40721 0.14349 0.38077 0.24536 -0.15117 0.0036843 -0.30282 -0.07975 -0.084194 -0.0027566 -0.13759 0.61854 0.020367 -0.092245 0.23268 0.25863 -0.17928 -0.15944 -0.082212 0.33068 -0.12023 0.28406 0.23641 0.30574 0.094496 -0.63625 0.24619 -0.2467 -0.20261 0.23282 0.19306 0.10483 -0.056627 0.0439 0.18539 -0.24533 -0.050805 0.18056 -0.49006 0.071779 -0.22699 -0.50535 0.53569 -0.0039954 -0.5816 0.055838 -0.050219 -0.41923 -0.19587 0.27371 0.046131 0.13919 -0.077414 0.39708 0.18734 0.15084 -0.20509 -0.15737 0.33601 -0.18823 0.095385 0.63676 0.28324 -0.31612 -0.12678 -0.49641 0.18337 -0.51042 0.049391 0.1601 0.56383 0.15583 -0.20283 0.072142 0.10419 -0.25831 0.24723 0.17871 0.42057 -0.24079 -0.3293 0.31299 -0.16157 -0.049512 -0.38329 -0.097267 0.51656 -0.31872 0.1848 0.16217 -0.12483 0.3402 0.50135 0.39125 0.30665 -0.34336 0.023315 -0.27894 0.3154 -0.18227 0.016097 0.10522 0.23507 -0.11084 0.14904 -0.075097 0.27828 -0.35054 -0.059177 0.3297 0.044738 0.027389 0.010633 -0.12669 0.3532 0.14015 0.29898 -0.043891 -0.36994 -0.56093 0.16337 -0.070612 0.081475 0.17414 0.22909 -0.13605 -0.15584 0.16904 -0.087391 0.32777 
pagamento -0.41897 0.24339 -0.05641 0.054279 0.061649 0.64599 -0.64939 -0.28359 -0.10149 0.50484 -0.20792 0.3436 0.052954 0.11941 -0.5225 0.29977 -0.85609 -0.33684 -0.41186 -0.28536 0.04244 0.44126 0.12513 0.00023125 -0.72988 -0.16082 0.28209 -0.014269 -0.19471 0.021318 0.52093 -0.1187 0.14358 -0.53483 -0.61274 -0.26955 -0.06383 0.33658 -0.16031 0.025985 0.44534 -0.38005 -0.36385 0.2993 -0.053593 0.272 -0.085387 -0.35415 0.049806 0.014676 0.42844 0.15751 -0.12029 -0.061142 -0.047333 -0.066372 -0.4901 0.13721 0.40118 -0.14919 0.01027 0.53966 0.56135 0.0089318 -0.22865 0.44141 -0.54228 -0.013987 0.25928 0.16782 0.030574 -0.28386 -0.074699 -0.012554 -0.046754 -0.6169 -0.084828 -0.27965 0.10237 0.54837 0.4348 -0.068265 0.023816 -0.018711 -0.20834 0.078769 -0.23842 0.29823 -0.20365 -0.69824 -0.1838 0.23104 0.22199 0.012168 0.33731 0.85382 -0.28032 -0.33897 0.31274 0.20835 -0.1504 0.16534 -0.11071 -0.068733 0.22984 -0.22667 -0.82232 -0.55775 -0.19124 0.56233 0.31886 -0.189 0.2489 0.38444 -0.37791 -0.61799 0.25299 0.11683 -0.39579 0.23474 -0.17716 0.41671 0.31329 0.08164 -0.54664 0.37947 0.4999 -0.25863 0.13327 0.36671 0.22861 -0.17991 0.041624 0.67555 0.095029 0.20007 -0.3792 0.16548 0.19712 -0.074249 -0.42588 0.16104 -0.27195 0.57075 0.21613 0.048883 0.34059 0.22213 -0.31127 0.42296 0.22194 -0.37695 -0.52575 0.68082 -0.40668 0.40858 -0.026552 0.48847 0.13858 0.4974 -0.4309 0.11651 -0.17601 0.098759 0.076329 -0.042621 0.027244 0.072646 0.0014927 0.26893 -0.24136 0.6734 -0.10116 -0.21116 0.094847 0.35309 -0.42726 0.33537 0.070078 0.26669 0.74103 -0.24912 -0.83967 -0.2543 0.31457 0.35083 -0.49636 -0.10659 -0.012424 -0.027653 0.070538 -0.6656 0.8476 0.26194 -0.46239 -0.35452 -0.48916 0.25617 -0.17777 0.2385 -0.40987 0.098113 0.49704 0.24772 -0.52637 0.23144 0.32247 -0.0489 0.25882 -0.10348 -0.28537 0.47458 -0.0715 -0.11262 -0.071323 0.1539 0.32457 -0.34638 0.17491 0.055387 0.2705 0.08796 -0.18581 0.68013 -0.45936 0.10282 0.35582 0.53489 -0.012692 -0.33491 0.54534 -0.13123 -0.38825 -0.26037 0.14515 -0.60858 0.017954 0.31103 0.28552 -0.020169 -0.42221 0.44288 0.089082 -0.29304 0.048625 0.1707 0.38876 0.28078 0.018327 0.75491 -0.48839 0.056186 -0.045153 0.36197 0.27622 -0.054241 0.30897 -0.41331 -0.32423 0.1392 0.45112 -0.13607 0.29052 0.3194 0.20281 -0.29307 -0.066188 -0.17856 0.46412 0.0070844 0.068275 -0.18996 0.43424 0.12609 0.4384 0.055059 0.025299 0.21202 -0.022505 0.31234 0.06099 -0.46215 0.080704 -0.25872 -0.097697 -0.42942 0.24397 -0.44274 0.48537 -0.15528 -0.33726 -0.02212 0.36982 0.13169 0.25637 -0.081176 0.4125 0.056731 0.12151 0.33748 
beisammenbleiben -0.33954 0.37042 -0.435 -0.26391 -0.032206 0.061578 -0.25254 -0.1123 0.0023542 0.099947 0.22933 0.023963 0.17907 -0.0062919 -0.2685 0.09799 0.37188 0.03819 -0.21606 0.012757 0.24447 0.23432 -0.042849 0.19481 -0.17814 -0.18567 -0.020945 0.089809 -0.17541 -0.068081 -0.0089417 0.17408 -0.067275 -0.10237 0.30086 -0.11932 -0.15987 -0.25235 0.11367 -0.19673 0.079079 -0.12103 0.019817 0.29247 0.12814 -0.2234 -0.11583 0.16014 0.072763 -0.013683 0.22253 -0.18037 -0.37172 0.27645 0.43828 -0.082886 0.080971 0.41946 -0.055179 -0.23239 0.41495 0.33393 0.26701 -0.19576 -0.209 -0.11142 0.1062 -0.088791 -0.27138 0.27833 -0.093061 0.09992 -0.21913 0.48249 -0.32416 0.20905 0.26203 0.00196 -0.10197 0.26012 -0.032691 -0.1373 3.6288e-06 -0.20615 0.1488 -0.091722 -0.28514 0.29079 -0.23557 -0.14922 0.15992 -0.067336 0.23315 0.10039 0.242 -0.10213 -0.21233 0.094951 -0.35848 -0.34594 -0.010109 0.018797 0.3927 0.021548 0.10505 0.00015448 -0.37983 0.11174 -0.2026 -0.19666 0.10716 0.03751 -0.30207 -0.12924 0.060786 0.14477 -0.31827 -0.24466 -0.14224 0.30387 -0.017928 -0.19527 -0.11833 -0.080084 0.018423 0.28433 0.0050123 -0.032467 -0.10027 0.15748 -0.038004 -0.05682 -0.27876 0.39884 -0.10474 -0.048234 -0.11339 0.30046 0.52078 -0.063316 0.0082791 -0.29329 -0.25025 0.26875 -0.25805 -0.32664 0.10551 0.096365 -0.24952 0.27293 0.25608 -0.18391 -0.039772 0.40146 -0.1028 0.21319 -0.2736 0.39807 0.27801 0.12444 -0.26798 0.14653 -0.32836 -0.024224 -0.39076 -0.0041707 -0.34976 -0.26784 0.0062045 -0.25306 0.075622 -0.16598 -0.13497 0.076299 0.14829 -0.070467 0.28838 -0.16291 -0.20382 -0.18978 0.16683 0.34909 0.11073 -0.1181 0.20296 0.18995 0.2276 -0.22746 0.027655 0.014296 0.19229 -0.26193 0.21237 -0.14074 0.037813 -0.090039 -0.15442 0.17857 -0.026139 -0.025787 -0.28513 0.11529 -0.2948 -0.084704 -0.35367 0.090093 -0.14563 -0.18354 -0.10036 0.36344 -0.04249 -0.39133 0.32831 -0.43742 -0.12799 0.02716 -0.22731 0.19042 -0.042502 0.16752 -0.062392 0.058808 -0.0033465 0.037264 0.17248 0.23579 0.25785 0.12372 0.05538 0.30516 0.038871 -0.26675 -0.42223 0.14837 -0.17011 0.25883 -0.1107 -0.19178 -0.051326 0.23975 0.2788 -0.079149 0.27812 -0.1025 -0.38979 -0.015729 0.292 0.17699 -0.0080273 0.074548 -0.23295 0.11194 -0.091718 0.089587 -0.27059 -0.23288 0.22862 -0.27781 -0.26337 -0.0049627 0.58988 -0.67105 0.013667 0.16191 0.047308 0.20683 0.085759 0.20282 0.29579 -0.031777 0.28834 -0.054578 0.31907 0.0069753 0.069214 0.15421 0.42986 0.036827 -0.22347 0.15791 0.2815 0.041085 0.26685 -0.11062 -0.052807 -0.36416 -0.12935 -0.2831 -0.12271 0.48377 -0.02148 0.32346 0.24802 0.55246 -0.19696 -0.38916 -0.022762 0.25314 0.2906 -0.29715 
homosexuellenprozesse -0.17963 0.24905 -0.26943 -0.26103 0.29387 0.10157 -0.2031 0.075802 0.059312 0.086741 0.092164 0.1496 0.056005 0.19968 -0.13886 0.15761 -0.15659 0.31008 -0.24278 0.26282 0.233 -0.33367 -0.015191 -0.090864 -0.0751 -0.10132 -0.2383 0.48505 -0.08584 -0.0001023 0.39564 0.47852 -0.52179 0.035962 -0.16881 -0.098007 0.20486 -0.28777 -0.10815 0.04959 -0.17366 0.10544 0.085341 0.22826 0.3622 -0.315 0.38426 -0.095189 -0.14754 -0.45519 0.13988 -0.079906 0.54643 -0.13948 -0.2717 0.16607 -0.25585 -0.087241 -0.16857 -0.19682 0.2451 0.39191 0.31559 -0.11919 0.14488 -0.083929 -0.29267 -0.047435 -0.081989 -0.23726 -0.20994 -0.1463 0.10012 -0.19837 0.064631 0.64326 -0.14926 0.12993 0.086908 0.01219 -0.0031566 0.041841 0.26529 -0.36386 0.046256 -0.17085 0.040373 0.12292 -0.32194 -0.14979 0.082221 0.0049479 -0.092887 -0.11177 -0.14053 -0.045363 0.55181 0.16096 -0.023784 -0.033742 -0.2056 0.11085 -0.24004 -0.0023668 -0.27457 0.11044 -0.40038 0.45712 0.3044 0.012593 -0.22722 0.04774 -0.2908 0.17295 -0.082816 0.036336 -0.19227 0.33467 -0.42548 -0.10604 -0.08172 -0.12902 0.060507 0.019647 0.26266 -0.039002 -0.058535 0.37609 0.24504 -0.16976 0.05669 0.21253 -0.0092052 0.25771 0.20263 0.30833 -0.25131 0.36207 0.28577 -0.13883 -0.1275 0.3355 -0.20575 0.79128 0.009581 -0.094374 0.4563 0.028916 0.094597 0.021905 0.4392 0.029029 -0.21539 0.44692 0.032606 0.037352 -0.25717 -0.084771 0.22019 0.14688 0.094331 0.33276 -0.033488 0.18887 -0.28136 -0.016711 -0.15127 -0.094296 0.1169 -0.13311 0.1446 0.20486 0.054462 -0.45207 -0.021279 -0.30681 0.32147 -0.35801 0.10554 -0.12914 0.037195 0.008491 0.19199 0.29339 -0.09772 0.39693 0.16272 -0.23661 0.11161 -0.0037383 0.61865 0.071256 0.12241 0.046232 -0.46367 -0.26586 -0.26396 0.30928 0.11222 -0.43992 -0.036055 0.14752 -0.013965 -0.18818 -0.28227 -0.33638 -0.025492 -0.015725 0.4447 0.16977 0.42674 0.067812 0.28972 -0.18969 -0.53034 0.16222 -0.048049 0.34264 -0.28109 0.52742 0.28469 -0.37214 -0.21332 0.18109 -0.10846 0.078243 0.39299 -0.22238 -0.15749 0.052685 -0.27392 0.048005 -0.06727 -0.49104 0.067554 -0.41635 -0.49278 -0.1628 -0.24366 -0.49049 -0.36251 0.053239 -0.40474 0.13209 -0.20139 -0.36438 0.05857 -0.18684 -0.11521 0.037357 0.15175 0.19062 0.048974 -0.078401 0.011766 -0.060814 0.21069 -0.19426 -0.41091 -0.19424 -0.23235 -0.069933 0.052816 0.081822 0.081144 -0.13815 -0.14758 -0.18257 0.11883 0.22255 -0.15622 0.52943 0.17975 0.00016803 0.099399 -0.040078 0.11129 -0.17171 -0.057905 0.2132 0.09812 -0.14194 -0.067113 -0.16497 -0.34117 -0.38325 -0.17585 0.083158 -0.17688 0.15973 -0.075662 0.21124 0.078467 -0.3134 -0.031536 0.011238 -0.086617 0.074359 -0.23688 0.20496 
polymerasekomplex -0.20304 0.36148 -0.4024 -0.22651 0.4753 0.32368 -0.40548 -0.23703 0.017522 0.0091628 -0.019504 0.010643 0.24106 -0.22201 -0.2051 0.13347 -0.14906 0.38161 0.025568 0.45224 0.086202 0.62147 -0.25156 -0.007996 -0.29737 0.09875 0.04979 0.22401 0.18891 -0.067147 0.086454 -0.44666 -0.26095 0.33296 -0.16665 0.21764 0.12584 0.0065168 0.2785 -0.13919 -0.3076 -0.02974 0.055072 0.44471 -0.088435 0.028951 0.022386 -0.4295 -0.12187 -0.035256 -0.059525 -0.11944 -0.23034 0.088233 0.24744 0.37573 -0.68583 -0.35505 -0.010952 0.030768 0.18763 0.0051035 0.6149 0.02814 -0.51141 0.48397 -0.21452 0.15145 -0.070267 0.15199 0.11949 -0.0079946 0.26567 0.2837 -0.24474 0.033851 0.059946 0.030188 -0.13601 -0.078085 -0.027739 0.25506 -0.56787 -0.21502 0.10091 -0.14154 0.076364 -0.093549 0.38139 -0.25384 -0.16047 -0.080449 0.17968 -0.13714 -0.40006 0.6745 0.18266 0.15065 0.057481 -0.54007 -0.30294 -0.008015 0.13049 0.68791 0.075904 -0.071522 0.060781 -0.042038 0.1039 0.1515 0.25273 -0.026573 0.19041 -0.070179 0.047045 -0.7667 0.089489 -0.040675 0.195 -0.097003 -0.17481 -0.023594 -0.31126 0.17368 -0.10026 -0.19412 0.20692 -0.024413 0.23066 0.44546 0.066604 -0.21682 0.014573 0.79354 -0.14716 -0.26489 0.022294 0.27612 0.17736 -0.14627 -0.33783 0.39765 0.0022558 0.30962 0.12097 -0.2543 0.046575 -0.0036608 -0.094243 0.042049 0.19683 -0.19536 -0.22812 0.39045 -0.11589 -0.0019026 0.035099 0.018468 0.47289 0.38361 0.29967 0.058594 -0.19967 0.30069 0.058135 -0.0027312 -0.0088205 0.15049 0.00039079 0.71466 -0.012664 -0.37749 0.057985 -0.6921 0.098445 -0.067769 0.0062712 -0.32822 0.21685 -0.087647 0.23956 -0.19413 -0.15031 0.25591 0.39201 0.26872 -0.033351 -0.61326 -0.71523 -0.24815 0.72308 0.4008 0.17784 0.39505 -0.37628 -0.10041 -0.73892 -0.13048 -0.44614 -0.042389 0.02697 0.15437 0.15145 0.15349 0.16289 0.081818 0.22581 -0.52395 0.16106 -0.38163 0.18568 0.14607 0.14499 -0.019653 -0.53286 0.013407 -0.18313 -0.098211 0.027139 0.55946 0.042779 0.11706 -0.53747 0.31952 -0.067467 -0.32645 -0.067583 -0.4286 0.032469 0.041908 -0.30665 0.11702 -0.30253 -0.1089 -0.077279 -0.22447 0.31335 -0.34589 0.33333 -0.48645 0.40172 0.2402 -0.27627 0.35044 0.053695 0.040326 0.1326 -0.02394 -0.075487 0.070034 -0.19905 -0.11087 -0.051023 0.060091 0.16017 -0.25931 0.38676 -0.41231 -0.10471 -0.026593 0.16071 -0.10411 0.22841 0.256 0.23151 0.10637 -0.30637 0.17092 -0.19107 0.25608 -0.037753 0.12052 0.68238 -0.21504 -0.30024 0.22404 0.24647 -0.027674 -0.2565 0.29587 -0.032517 -0.079336 0.19036 -0.2878 0.064696 -0.44466 -0.029862 -0.0016447 -0.22653 -0.062176 0.15087 0.24882 0.47941 0.59963 -0.21466 0.2858 -0.43815 0.17824 -0.57678 0.53576 
unharmonisches -0.15193 0.23919 -0.26118 -0.59026 -0.39023 0.12915 0.25915 -0.4831 0.20623 -0.14989 0.0066599 -0.099067 0.0093794 -0.25564 -0.24301 -0.29667 -0.32457 0.2742 -0.21063 -0.09016 0.29285 0.53443 0.082034 -0.47972 -0.27433 -0.4191 -0.36151 0.62742 -0.2229 -0.13201 0.19969 -0.031488 0.2756 0.047089 -0.11206 -0.022775 0.14032 -0.026562 -0.097206 0.086824 -0.41146 -0.082337 -0.22732 0.38776 0.57698 0.18978 0.33928 0.24404 -0.16036 -0.35701 -0.25984 0.14788 -0.2153 -0.11191 0.22984 0.035033 -0.19749 0.33432 -0.32314 0.44821 -0.26787 0.10549 -0.019938 0.016236 -0.33717 -0.41031 0.22089 -0.0095984 0.048151 0.13387 0.10582 0.094947 -0.34088 0.087187 -0.36117 -0.048773 0.1713 0.15541 0.10963 -0.019469 0.062725 -0.19055 0.31961 0.18799 -0.12911 -0.15546 0.029375 0.075595 0.12528 0.081766 0.20053 0.17841 0.51994 -0.011102 0.026456 0.37498 0.3542 0.13917 0.19449 -0.066414 -0.57644 0.010324 -0.17597 -0.21676 -0.033993 0.27138 -0.32565 -0.24177 -0.33868 -0.0804 0.032819 -0.28923 -0.15237 0.46537 0.17484 0.34875 0.088586 0.56965 -0.30716 0.25887 0.10083 0.027829 0.42166 0.0070947 0.012099 0.51591 -0.081201 -0.10132 0.034282 0.18444 0.062063 -0.13945 0.037297 0.39297 0.17623 0.10451 -0.14567 0.047497 0.038753 0.14887 -0.58323 -0.39297 -0.066166 0.21926 -0.1344 -0.059857 -0.10449 0.34904 -0.29644 0.061344 0.23835 0.015809 -0.22124 0.14326 -0.31524 -0.3415 -0.099565 -0.25467 0.42283 -0.038517 -0.011452 -0.032798 -0.11313 -0.079757 -0.11394 0.037862 -0.22331 0.2122 0.26987 0.21166 0.04114 -0.2067 -0.39692 -0.27422 0.36125 -0.035889 0.13736 0.068784 -0.12656 -0.21944 0.2983 0.48874 -0.0026731 -0.17155 0.34202 -0.037095 -0.42791 -0.047749 -0.10866 0.011947 0.42739 -0.15578 0.15646 -0.11586 -0.1675 -0.021999 0.14083 0.37023 -0.10666 -0.049402 -0.076855 0.038671 0.3612 -0.21484 -0.68294 0.4061 0.14207 -0.74053 -0.030826 0.44705 0.26293 -0.36313 -0.13209 -0.27709 -0.49348 0.40466 0.21089 -0.10457 0.17811 0.4174 0.10548 -0.26427 0.11585 0.15852 -0.095643 -0.2397 -0.25108 0.30887 -0.38266 -0.14289 0.036441 0.39091 -0.5249 -0.19227 0.0085821 -0.030844 -0.2137 0.13934 0.46736 -0.10056 -0.08541 -0.13374 -0.1685 0.050457 -0.13685 -0.17287 0.052873 0.32301 0.35527 -0.0094682 -0.052354 -0.30664 -0.36325 0.34621 0.18764 -0.38747 0.14312 0.20886 -0.056085 0.39923 0.2854 -0.39897 -0.22652 0.41632 0.25194 0.17836 -0.75959 -0.067293 -0.20635 -0.12317 0.69418 0.49744 0.18037 0.047395 0.31413 0.014947 0.70849 -0.20484 -0.38031 0.25867 0.19114 -0.16203 0.0069812 -0.3257 0.18759 -0.18407 0.087174 -0.29333 -0.054672 -0.1095 0.039084 0.24691 0.080875 -0.24609 -0.063593 -0.080602 -0.3135 0.040207 0.22502 -0.035322 
brennstofflagerung -0.046673 -0.1908 -0.25014 -0.41346 -0.012064 0.54831 0.21269 0.2146 -0.1576 -0.1076 -0.06606 0.066996 -0.062883 -0.069213 -0.20509 0.046633 -0.15021 0.016846 0.0212 0.54081 -0.35974 0.10963 0.010235 0.2566 0.085054 -0.16325 -0.013815 0.11147 0.010392 0.19407 -0.099653 0.074428 0.17218 0.71265 0.43569 0.053442 0.12783 0.15791 0.16232 -0.25984 -0.19818 0.091485 -0.20002 0.33495 0.35231 0.23203 0.29363 0.20411 -0.036497 -0.20163 0.07399 -0.41163 0.44964 0.17378 0.12441 0.14121 -0.30856 0.066524 0.15133 0.2875 0.17154 -0.05781 -0.089628 0.25669 -0.18311 0.51776 0.0744 0.061613 -0.13366 0.30261 0.31083 -0.067682 0.25047 -0.047078 0.067281 -0.25339 0.17107 0.083106 -0.034351 0.15836 -0.057906 0.75121 -0.39026 0.18381 0.10612 0.032061 0.12606 0.17477 0.019314 0.47159 0.29231 -0.19361 -0.12951 -0.053046 -0.24854 0.16844 0.14863 0.0077753 -0.093695 -0.059746 0.0066568 0.029092 0.13907 0.23868 0.097326 0.27784 -0.63736 -0.17933 -0.23585 0.26669 -0.12935 -0.18442 -0.35527 -0.23715 -0.27952 -0.5906 -0.14166 0.11485 0.12127 -0.28922 0.16034 0.18386 0.046119 0.22469 0.10613 -0.022701 -0.025242 0.05671 0.11147 -0.19469 -0.35168 0.31757 -0.17339 0.57754 -0.028731 -0.30524 -0.408 0.054183 0.19478 -0.048673 0.010542 0.22173 -0.32172 0.39106 -0.19912 0.031856 0.074679 0.078608 -0.041964 -0.22007 0.48361 -0.46269 -0.23415 0.14937 -0.33265 -0.017528 0.2877 -0.17577 0.082929 0.30187 0.13286 0.41858 -0.091805 0.1682 -0.18976 -0.16568 -0.06804 0.22962 -0.22258 0.13964 -0.26543 0.096682 0.31339 0.005662 0.17422 0.044784 -0.1915 -0.0046874 -0.035401 0.20995 0.21982 -0.13493 -0.19972 0.26287 0.068787 0.17119 0.017509 -0.28407 -0.12969 0.44682 -0.026323 -0.42481 0.383 0.20608 -0.24235 -0.10332 -0.030662 0.3536 -0.4552 -0.25212 -0.2285 0.41734 0.2137 -0.45542 -0.086062 0.15606 0.23173 -0.18326 -0.060993 0.27909 0.32935 0.21121 0.57908 -0.27874 -0.6762 -8.5375e-05 0.112 0.11688 0.46985 0.31193 -0.43149 0.028192 0.1133 0.040185 -0.0018107 -0.06205 0.37942 -0.26847 -0.35727 0.47481 -0.19267 -0.10055 -0.10984 -0.18288 0.37416 -0.011967 -0.028857 -0.36832 -0.023239 0.067436 0.1764 0.052541 -0.3574 0.2829 0.25242 -0.5853 0.26272 -0.26383 0.063483 0.43543 -0.037998 0.21576 0.18219 0.24238 0.1151 -0.2231 -0.055055 -0.35024 -0.066704 -0.10552 -0.0085773 -0.55343 -0.099229 -0.17156 -0.1359 -0.23856 -0.086078 0.065782 0.23814 0.24889 0.40014 0.31442 0.39121 -0.043745 0.10758 -0.36643 0.50214 0.29851 -0.23856 0.25222 0.027366 -0.015843 0.36023 0.26265 0.39973 0.037212 -0.12067 -0.64049 -0.71509 -0.21673 -0.075039 0.26997 -0.12136 0.6116 -0.61666 0.10205 -0.35812 0.013313 -0.052099 0.015237 
balabin -0.23884 0.63564 -0.65529 -0.83167 0.35414 0.76762 -0.41216 -0.30954 0.12206 -0.23877 -0.063074 0.090233 -0.083075 -0.13903 -0.14938 0.035333 -0.42052 0.33783 -0.52813 0.38113 -0.0988 0.18392 0.16392 -0.17732 -0.23764 -0.43483 -0.01822 0.015711 0.22972 -0.32655 0.20028 0.13122 0.021029 -0.15673 0.083587 -0.019708 -0.14681 -0.47215 -0.24722 -0.073699 -0.24987 -0.19301 -0.13907 0.25477 0.17177 -0.33197 -0.070346 0.21875 -0.55398 -0.03018 0.12011 -0.1271 -0.055 0.061902 0.052132 -0.18347 -0.52146 -0.44833 0.22647 0.18853 0.067342 0.10917 0.31594 0.069234 -0.064597 0.10043 -0.17856 0.25338 0.19894 -0.038533 0.04691 -0.36696 -0.30882 0.060222 -0.056561 -0.23734 0.012643 -0.41779 0.41872 0.55417 0.16606 0.31828 0.017223 0.3748 -0.10495 -0.071416 -0.13372 0.63109 0.33026 -0.10344 -0.16245 0.13503 -0.24954 -0.41822 0.30841 0.2838 -0.28936 0.23343 -0.022415 -0.34113 -0.17941 -0.087873 -0.04624 -0.022715 -0.24012 0.21469 0.035065 0.46185 -0.12355 -0.2578 -0.17873 0.36896 0.46452 0.071189 0.23917 -0.14236 0.20742 0.18331 -0.24582 -0.22512 -0.44401 0.53194 0.30111 0.01162 0.39021 0.069193 0.18957 -0.14047 0.22023 0.38974 0.21131 -0.075386 -0.024262 0.040743 0.22911 0.012401 0.15114 0.41509 0.032452 -0.34302 -0.38231 -0.0077862 -0.034528 0.072699 0.15709 -0.49482 -0.024259 0.010132 0.21631 0.054031 0.22936 -0.1541 -0.41297 -0.097881 -0.25559 -0.10201 0.13655 -0.009078 0.49302 0.65099 -0.171 0.26862 0.17973 0.56086 0.24496 0.32816 0.053032 -0.11525 0.12351 0.10827 0.037199 0.14682 0.28458 0.34595 -0.11026 0.35428 -0.2094 -0.055984 0.2208 0.083259 0.22123 0.32798 0.05831 -0.10099 0.40595 0.24221 0.47248 -0.33976 -0.36198 -0.28867 -0.10676 -0.38543 -0.081133 -0.21231 0.016866 -0.27502 0.26113 0.44734 0.12772 0.091366 0.24449 -0.0080884 0.075747 -0.033683 0.39797 -0.13694 0.40422 -0.2472 0.14373 -0.17632 -0.24246 0.24122 -0.13131 0.12696 -0.17544 -0.11888 -0.045578 -0.58015 -0.16572 0.1274 -0.059609 -0.6689 0.10499 0.07633 -0.34064 -0.16657 0.15063 -0.089834 -0.35446 0.22947 0.037277 -0.41019 0.21021 0.26014 -0.13974 -0.19872 -0.06895 -0.46496 0.21776 -0.23023 -0.0024368 0.086125 -0.082214 -0.26863 0.15493 -0.07788 -0.18573 -0.21945 -0.058067 0.071991 0.22534 0.31739 0.030736 -0.32353 0.040131 -0.014849 0.49706 0.071371 0.0024217 -0.18668 -0.18184 -0.14331 0.35068 -0.044278 -0.037926 0.0043153 0.07916 -0.14426 0.2131 -0.37094 -0.068368 0.10287 0.26249 -0.24572 -0.17565 -0.04378 0.36896 0.099017 -0.32123 0.37366 0.15533 0.0029536 -0.053999 0.14682 0.21161 -0.48644 -0.0098711 -0.30417 -0.26826 -0.28062 0.05697 0.022474 0.20865 0.67954 -0.24889 -0.556 -0.098334 -0.25578 0.1299 0.35047 
„dauerkonflikt -0.26823 0.020736 -0.40831 -0.82133 0.45694 0.26438 -0.45032 0.0088842 0.036496 0.058471 -0.084257 0.087 0.033334 -0.28464 -0.070657 -0.13913 -0.0096261 0.12084 -0.45614 0.11755 -0.058351 0.37983 -0.12523 0.00071284 0.32245 -0.19096 -0.29773 0.5284 -0.50344 0.024158 0.077678 -0.047971 -0.14009 0.13559 -0.21507 -0.23807 0.25359 0.14192 -0.031861 0.020741 -0.045537 0.4066 -0.06776 0.13908 0.1871 0.22734 -0.17499 0.24858 -0.085931 -0.10619 -0.12341 -0.075623 -0.028485 0.00040396 0.0067286 -0.3168 0.18824 -0.066056 -0.081408 0.063017 -0.29144 0.010947 0.59882 -0.18999 -0.13176 -0.15424 0.21071 -0.090481 0.34667 0.21206 -0.3336 -0.16824 -0.54177 0.17419 -0.098569 0.35054 0.42695 0.13813 -0.14015 0.03436 0.13347 0.17661 0.050215 -0.10237 0.076774 -0.030064 -0.021225 0.087473 0.085624 -0.064461 0.16924 -0.14428 0.51097 -0.10345 -0.23497 -0.55156 0.4907 0.22327 -0.31172 0.2647 0.078402 0.35828 0.27951 -0.19394 -0.48981 -0.30163 0.019206 0.45014 0.29456 -0.066398 0.30254 0.10939 -0.066016 -0.098089 0.048738 0.14732 -0.042127 0.21689 0.072136 0.031463 0.021227 0.20715 -0.022378 0.54199 0.0066738 0.18639 -0.057268 0.45527 0.10435 0.16172 0.51306 -0.10284 -0.14146 -0.00010561 0.16255 0.40768 -0.23528 -0.2679 -0.065503 0.25944 0.10014 0.12875 -0.28418 0.42552 -0.27933 0.23924 -0.10799 0.17454 -0.22672 0.077751 0.37108 -0.18067 -0.31126 0.37636 0.070084 -0.17892 -0.43123 -0.058147 0.30578 0.0011236 -0.41746 0.12223 0.077374 0.11129 -0.055926 0.19493 0.27464 -0.087711 0.028668 0.12008 0.34243 -0.018312 0.031822 -0.098421 0.25278 -0.11511 -0.3827 -0.38886 -0.12181 -0.10036 -0.020088 -0.19484 0.097454 0.27204 0.046249 0.13217 -0.1822 0.14825 0.015044 -0.084203 0.52717 -0.37681 0.23646 0.18343 -0.26409 -0.2199 -0.20163 0.37834 0.10861 -0.064962 0.31373 0.11937 0.17842 -0.21741 0.09565 -0.22005 -0.37918 -0.021986 0.43886 -0.13668 0.49057 0.053011 0.01977 0.079014 -0.54747 0.52799 -0.31896 0.086748 0.13013 0.56368 0.041948 -0.44114 -0.24227 0.47266 -0.21828 0.051519 0.29794 -0.22878 -0.18597 -0.10137 -0.24413 0.0093555 -0.32293 -0.019349 0.2033 0.16044 0.096011 -0.01183 -0.084255 -0.20101 0.16345 0.074961 0.082885 -0.023525 -0.21899 0.22463 -0.11835 -0.22205 -0.093047 0.31196 -0.13643 0.018113 0.2142 0.2279 0.053944 -0.53267 0.17642 -0.65959 -0.054376 0.32115 0.46565 0.18449 -0.12595 -0.21082 -0.18899 -0.29966 0.17645 0.046867 0.032282 0.065987 -0.15705 0.47827 0.55815 0.13802 0.035631 0.017159 0.31787 0.16989 0.094932 0.35315 0.2786 0.15895 -0.16165 -0.53972 -0.14075 -0.23429 -0.031691 -0.11732 -0.46589 0.091994 0.16382 0.10031 0.093571 0.098334 -0.13698 -0.14051 0.16938 0.36255 0.20387 0.22852 
bildgießereien -0.068277 0.36924 -0.27883 -0.26283 -0.083708 0.11732 -0.087834 -0.30227 0.27578 -0.19376 -0.14873 0.36325 0.21018 0.20304 -0.17841 0.5367 -0.15859 0.40812 -0.47022 -0.031121 0.055599 -0.091406 -0.33955 -0.12387 0.14036 0.04476 -0.4432 0.29255 -0.25703 -0.081341 0.7917 0.24593 0.23078 0.27086 0.3002 -0.41256 0.13127 -0.28157 0.10227 0.43085 -0.13785 -0.28777 0.025199 0.70595 0.19553 -0.24392 0.068319 0.38636 -0.21381 0.068888 -0.14431 -0.0013325 0.05412 0.44792 -0.40842 -0.13758 -0.40643 -0.091015 -0.30682 0.3813 -0.095119 0.092204 -0.051714 0.512 -0.25642 0.10279 0.0085471 0.13873 0.32274 -0.080243 -0.19458 0.14969 0.1573 0.10981 -0.27519 -0.1879 0.23552 0.28304 0.41542 0.22189 0.24667 0.0098781 -0.26138 -0.056886 0.1171 -0.50676 0.45052 0.026884 0.25432 0.00052457 -0.061242 -0.18758 -0.46168 -0.35121 -0.14726 0.22109 0.60725 -0.047335 0.060757 0.30339 -0.16489 0.28815 -0.12752 0.56314 -0.062186 0.37058 -0.50778 0.2245 -0.189 0.10636 0.041075 -0.15938 0.26782 -0.24896 0.15297 -0.13478 -0.12635 0.066488 0.34218 -0.12484 0.2988 -0.1611 0.19748 -0.17104 0.26437 0.7218 -0.17691 -0.069605 -0.07001 -0.35712 -0.22755 -0.26257 0.27153 0.2133 0.05877 -0.2348 -0.56954 0.044275 -0.078075 -0.055263 0.033077 0.26396 0.25771 0.41827 -0.048752 -0.067027 -0.20024 -0.24362 0.42171 -0.076963 0.22178 -0.30399 -0.18432 0.28612 -0.32799 -0.031297 -0.66017 -0.049844 -0.0088804 0.11939 0.32725 0.52064 -0.44163 0.12855 0.058749 -0.037464 -0.013445 0.15722 0.089845 0.24656 -0.29514 0.17118 0.23787 -0.23353 0.52333 0.080552 -0.027962 -0.27945 -0.020998 0.29628 0.033142 -0.30696 0.050164 0.20125 -0.45233 0.27921 0.71757 -0.54609 -0.33244 0.24212 0.65234 -0.037575 0.32881 -0.069113 -0.59499 -0.21646 0.1306 0.84823 -0.46494 -0.23459 -0.097997 0.27247 0.14361 -0.14569 0.0046565 -0.0082396 -0.29889 -0.44104 0.60646 -0.13938 0.40838 0.21196 0.20765 -0.24325 -0.44068 0.18197 0.070005 -0.0046029 -0.071053 0.25196 0.4417 0.23932 0.37841 -0.099983 0.06837 0.11613 0.23687 0.2051 0.056242 -0.049367 -0.23235 0.1855 0.061942 -0.3808 0.23519 0.10455 -0.27152 -0.18341 -0.26537 0.036381 -0.019249 -0.29157 -0.35085 0.63152 -0.0078271 0.2489 -0.11648 -0.023797 -0.21642 0.21888 -0.15437 -0.2195 -0.090377 0.085555 0.096609 -0.26603 -0.46354 -0.15038 -0.20903 0.019814 0.022964 -0.50302 -0.084057 0.35951 -0.11584 0.032837 -0.37195 -0.15574 -0.29545 -0.085548 0.099706 0.54142 0.12435 -0.16866 -0.30208 -0.21866 -0.0853 -0.10575 -0.28652 0.30115 0.12661 -0.33908 0.014513 0.046757 0.0016031 0.056913 -0.63736 -0.45852 -0.30204 -0.03156 0.31421 -0.11928 -0.17281 0.059485 -0.41082 0.09977 0.19732 -0.30507 -0.081476 0.024123 
vvitch 0.19795 0.48343 -0.54895 -0.26844 0.40875 0.12756 0.11439 -0.44806 0.23713 0.20172 0.35227 -0.016256 0.03911 0.25848 -0.44056 0.15076 -0.12338 0.3619 -0.32897 0.2779 -0.14165 0.1024 -0.19352 -0.21972 -0.099952 -0.15744 -0.55977 -0.014328 -0.10619 -0.34775 -0.17735 0.22653 0.19202 -0.11713 0.10502 0.063188 -0.35107 -0.11465 -0.4362 0.24573 -0.054973 -0.13849 -0.36638 -0.15962 0.2255 -0.46758 -0.082911 -0.24184 -0.45763 0.025642 0.28078 -0.30867 0.20385 0.018509 0.077724 -0.23459 -0.17258 -0.15658 -0.020939 -0.35004 -0.093706 0.18153 -0.0036284 0.57636 -0.26717 -0.044445 -0.033128 0.11682 -0.19604 -0.19656 0.10294 0.22607 -0.15999 -0.19839 0.32036 -0.62112 -0.014445 0.31712 0.071391 0.20698 -0.47464 -0.20876 -0.11146 0.60963 0.2009 -0.38293 0.29998 0.28357 0.14118 -0.18087 0.13967 -0.23474 0.18423 -0.21638 0.15282 0.062805 -0.039435 0.80215 -0.079362 -0.44186 -0.11021 0.079949 -0.32478 -0.4156 0.040708 -0.14367 0.13522 0.32754 0.14108 -0.26266 0.24367 -0.20254 0.30828 -0.014674 0.38181 -0.03215 -0.11919 0.32165 -0.17196 0.074312 -0.02169 0.376 0.33672 0.28048 0.19279 0.50371 0.32777 0.32838 0.16319 0.62586 0.085428 -0.038855 -0.061619 -0.13069 -0.079028 -0.10663 0.19979 0.37448 0.43526 -0.50434 -0.34653 0.15018 -0.30278 0.35873 -0.0092308 -0.12852 0.46292 0.01257 -0.19283 -0.17797 0.29273 0.27395 -0.28727 -0.27242 0.2806 -0.096935 0.25186 0.33607 0.050787 0.19189 -0.22265 0.32676 0.17578 0.46503 0.031255 -0.0095875 -0.41125 -0.043906 0.14709 0.107 -0.30643 0.32019 0.2236 0.2527 0.33744 0.43629 0.03954 0.11898 0.063845 -0.18042 -0.18013 -0.076804 0.13314 -0.2654 0.62027 0.24256 -0.43432 -0.067 -0.41727 0.038454 -0.12656 -0.04452 0.21747 0.18392 -0.054357 -0.41248 -0.10675 0.13599 -0.41387 -0.33596 0.18912 -0.26803 0.33816 -0.18505 -0.28182 0.15115 -0.11505 0.11794 0.33804 -0.47369 0.23414 0.1794 -0.28425 0.088585 -0.538 0.12595 -0.1163 0.10089 -0.077364 0.14187 0.17743 -0.42657 -0.10874 -0.0058965 -0.65987 -0.069986 -0.18779 -0.57208 -0.2638 0.062895 0.14355 -0.028471 -0.089826 0.083715 -0.20275 -0.8372 -0.20702 -0.27967 0.41454 -0.28872 0.027967 -0.052207 -0.10745 -0.17597 0.00045943 -0.17519 0.13151 -0.14407 0.14336 0.31643 0.15128 0.12414 -0.3788 -0.31652 -0.12966 0.084855 0.63269 -0.26506 -0.25751 -0.027621 -0.4074 -0.18565 0.073535 0.22974 -0.15929 0.18 -0.28365 -0.10055 -0.25266 -0.12359 -0.073964 -0.25123 0.11628 -0.29793 -0.39801 -0.26081 0.30277 -0.19492 -0.21356 -0.0089019 0.038152 0.29463 0.42821 0.32423 0.30607 -0.58625 -0.32798 -0.22614 -0.064582 0.065952 0.036798 -0.25386 0.33601 0.30869 -0.25135 -0.35095 0.15888 -0.65489 -0.3185 0.28452 
durchkonjugiert -0.043256 0.21711 -0.54416 -0.3486 0.33609 -0.16609 0.24712 -0.09459 0.35374 0.56542 -0.097201 0.36284 0.29852 -0.46723 0.0027669 0.3404 -0.30702 0.15904 -0.27007 0.2554 0.15596 0.24338 0.20292 0.041089 -0.38959 -0.16483 -0.00011921 -0.073484 0.03069 -0.2675 0.52118 -0.058021 -0.11193 0.094528 -0.024974 -0.14448 0.073995 0.0084385 0.23066 0.048331 -0.16542 0.19656 -0.15797 0.28115 0.26129 -0.16953 0.40336 0.3497 -0.072964 -0.13115 -0.11646 0.45102 -0.08821 0.061687 -0.039789 -0.06572 -0.40306 -0.11332 0.013466 0.0034885 0.12546 0.10852 0.35025 0.24205 -0.41238 0.12199 0.50422 0.38405 -0.0064172 0.6971 0.091144 0.18086 -0.035879 -0.059379 -0.01312 -0.0087729 -0.19555 0.19687 -0.18621 -0.050886 0.2908 0.33278 -0.18553 0.051177 -0.23727 -0.20182 -0.45671 0.1188 -0.0072209 -0.036105 0.38826 -0.2257 0.0019855 0.082336 -0.33848 0.22614 0.044486 -0.14476 0.35264 -0.22291 -0.37766 -0.082499 0.35959 0.28449 -0.0067617 0.013959 -0.15491 0.18523 0.019884 0.016346 0.55437 -0.061797 0.18954 -0.4488 0.19821 -0.12141 0.22724 0.37498 -0.071811 0.47282 -0.038577 -0.47514 0.071752 0.093917 -0.52885 -0.1422 -0.023827 -0.078217 0.17872 0.44242 0.075146 -0.42615 -0.21202 0.3251 0.024282 -0.064922 -0.33008 0.073657 0.40094 -0.47438 -0.24162 0.16003 -0.13323 0.50838 0.10471 0.0098889 -0.0042114 0.4338 -0.16655 -0.11836 -0.16983 0.1909 -0.089778 0.24267 -0.58278 0.03437 -0.0027538 -0.07871 0.27539 0.5012 0.38268 0.0013926 0.16112 0.31405 -0.22182 0.12188 -0.062053 0.039321 -0.31307 0.88121 -0.044328 -0.50797 -0.0064437 -0.080915 0.37228 -0.18672 0.13462 0.010238 -0.17214 0.033665 0.16848 0.39739 -0.16066 -0.11903 0.043973 0.39888 0.61358 -0.40843 -0.36414 -0.064423 1.0656 0.13002 0.47087 0.044073 0.025976 -0.64438 -0.20184 0.10856 -0.37771 0.24448 -0.39781 0.57893 -0.033498 0.033763 -0.052728 -0.12123 0.32109 -0.49033 0.20727 0.34263 0.34428 -0.035986 -0.18774 -0.54567 -0.39599 0.065513 -0.35495 0.17559 0.058875 0.069636 0.24199 -0.35506 -0.0074443 0.14548 -0.0027131 0.24202 -0.11057 -0.27611 -0.24483 0.33018 0.12971 -0.056648 -0.50889 -0.030646 0.20193 0.26999 -0.1971 -0.13221 0.20252 -0.30606 0.15775 -0.061976 -0.35254 0.01127 -0.096423 0.096496 0.42777 0.065168 0.21433 0.012806 -0.19718 0.14705 -0.028038 -0.1204 -0.065775 -0.20968 0.47909 -0.43802 0.26445 -0.32551 -0.030877 -0.2262 0.13564 0.21035 -0.25158 0.57154 -0.20414 -0.23154 -0.33579 -0.17742 0.29618 0.37424 0.50568 0.25602 0.11121 -0.030459 0.5121 -0.18622 0.19089 0.074223 -0.16918 0.13408 0.053418 -0.31619 0.50767 -0.048085 0.60714 -0.329 -0.187 -0.30806 0.24991 0.3644 -0.083565 0.07414 0.1063 0.20264 -0.31678 -0.11702 -0.27612 0.28831 
gainsbarre -0.10121 0.5787 -0.57262 -0.085906 0.055164 0.38872 0.01502 -0.14724 -0.015214 0.20194 0.19436 0.10808 -0.062003 0.079202 0.028681 -0.00095931 -0.10364 0.23022 0.14763 -0.10291 0.14133 0.45193 -0.0023838 0.09273 -0.42233 -0.076045 -0.26758 0.13407 -0.43172 0.013048 0.80541 0.42768 0.21969 -0.10586 0.15012 -0.256 -0.40299 0.1199 -0.25857 -0.080049 -0.29156 0.057322 -0.11171 0.5809 0.26434 0.12409 0.14473 0.062176 -0.50059 -0.37933 -0.04737 0.27036 -0.10947 0.12936 -0.39931 -0.10579 -0.20197 -0.22437 -0.098669 0.15667 -0.28696 0.20491 0.26335 -0.178 0.025948 0.56309 -0.012685 0.13712 0.12898 -0.30098 -0.32389 0.14526 -0.35147 0.31672 -0.073416 -0.45458 0.028185 0.062081 0.15425 0.13459 0.10275 -0.25903 -0.15903 0.05884 -0.072007 -0.030966 0.056552 0.31059 0.096714 -0.3076 -0.048773 -0.25744 -0.14599 -0.1763 0.0039886 -0.25213 -0.024155 0.38414 -0.20587 0.00069305 -0.15868 -0.27735 0.045249 -0.13492 -0.087743 0.071913 0.014196 0.34264 -0.10245 0.0039408 0.27648 -0.010795 -0.12292 -0.17902 0.066648 0.019478 0.043086 0.31781 -0.047409 0.078921 -0.52474 0.38589 0.12157 0.12153 0.050005 0.19986 0.06801 0.38494 -0.012208 -0.10586 -0.16723 -0.10052 -0.22243 -0.26447 -0.19768 -0.21949 -0.15583 -0.015694 0.13178 -0.38923 -0.12639 -0.067182 0.33205 0.48605 0.095957 0.11488 0.21598 -0.17329 0.12776 0.064963 0.18554 0.16485 -0.25888 0.16995 -0.28563 -0.047643 0.10307 0.20368 0.24455 0.18732 0.18479 0.016239 -0.2471 0.32154 -0.024574 -0.048983 -0.15812 0.067496 0.097114 -0.0019019 -0.045838 -0.25212 0.059635 -0.26237 -0.13339 -0.23828 -0.0036662 -0.3053 0.31098 -0.21835 0.30214 -0.033138 0.018453 0.21811 -0.19678 0.095693 0.3088 0.028184 -0.075209 0.067656 0.32662 -0.30968 -0.089101 0.16595 0.086185 -0.35384 -0.43594 0.18252 -0.010779 -0.12835 -0.2964 0.014547 0.13468 0.16208 0.11469 0.37289 -0.13628 -0.4871 0.54507 -0.11952 0.17623 -0.21379 0.17629 -0.082684 -0.41492 0.17334 0.095984 0.0056658 -0.097811 -0.27966 -0.077798 -0.039869 -0.10318 0.071888 -0.28115 0.034354 0.50257 0.44123 -0.14874 0.031845 0.07151 0.045764 -0.058248 -0.17906 0.2498 -0.23039 -0.19514 -1.7378e-05 -0.34415 0.02619 -0.049085 -0.062116 -0.3528 -0.02139 0.2464 -0.29851 0.23745 0.026221 -0.38234 0.044937 0.20413 0.086284 -0.44566 0.07905 -0.19336 -0.080185 -0.022323 0.083161 -0.15516 0.074288 -0.3065 -0.26805 0.039951 0.088704 0.038031 0.03812 -0.15839 -0.33057 -0.29326 -0.043719 0.06197 0.22449 0.18526 -0.15226 -0.16967 -0.1385 0.54004 0.42387 -0.171 -0.2193 -0.24597 0.075422 -0.089084 -0.015327 0.30886 -0.14935 -0.31543 -0.33189 -0.069847 0.041795 -0.17655 -0.12254 -0.21611 -0.09562 0.13375 -0.34946 -0.13554 -0.14891 -0.2912 0.47596 
flugbootpionier -0.29123 0.5995 -0.2633 -0.16621 -0.16648 0.38171 -0.30826 -0.16453 0.23936 -0.28496 0.17932 -0.058691 0.085175 -0.078416 -0.17648 0.31536 -0.050288 0.56909 -0.15336 0.15927 -0.10692 0.21717 0.1003 0.010164 0.28798 -0.30383 -0.54725 0.072448 -0.13076 -0.010757 0.13992 0.12807 0.29661 -0.37393 -0.26877 -0.553 -0.14189 -0.080198 -0.084755 0.12586 0.46147 -0.12228 -0.52356 0.46411 0.42733 -0.39087 0.13596 0.24864 0.4316 0.072167 0.18012 -0.2411 0.10319 -0.04883 0.297 -0.41552 -0.17188 -0.11921 0.38984 0.56937 -0.075471 -0.083292 0.40953 -0.0053257 -0.48914 -0.21129 -0.24621 0.06729 0.02796 0.0082799 0.10118 0.16508 -0.067715 0.38324 0.2868 -0.35845 0.31411 -0.06636 0.027551 0.087174 -0.2857 -0.090096 0.21118 -0.06545 -0.33035 -0.32716 -0.10807 -0.22749 -0.14901 0.034077 -0.21453 -0.12478 0.036755 -0.10615 0.47277 -0.036914 -0.0078128 -0.32075 0.096754 -0.070954 0.18973 0.24275 -0.069612 -0.017493 0.14421 0.30038 -0.31344 0.01165 0.4175 0.09771 -0.40209 -0.42843 0.33998 0.10022 0.094079 0.24665 -0.57836 0.097056 0.13064 -0.29764 -0.00066037 -0.091081 0.027702 0.37403 -0.28769 -0.28485 0.48948 0.12036 -0.14614 -0.23461 0.35068 0.039304 0.45812 0.31799 -0.016693 -0.22453 0.24677 0.16651 -0.022397 -0.17476 -0.15531 0.12459 -0.07285 0.69416 0.43785 -0.47424 0.35004 -0.1702 -0.077372 0.21908 0.22854 0.20301 -0.025664 -0.048828 0.38875 -0.13017 -0.36519 0.036574 0.11805 0.14986 -0.053481 0.29609 0.24114 0.38653 -0.031057 0.22756 0.22818 -0.16084 0.18714 0.27544 -0.3748 -0.5608 0.4929 -0.11487 0.017472 0.14686 0.26299 0.35998 -0.30124 -0.26589 0.54934 -0.12144 -0.49279 0.46286 0.13873 0.15134 -0.132 -0.36942 0.035633 0.29345 0.043756 -0.30744 0.21281 0.37633 -0.13968 -0.54438 -0.44945 0.45216 -0.4895 -0.18709 -0.0080771 0.44655 0.45232 -0.14436 -0.34462 -0.00071728 -0.15336 -0.26063 0.61905 0.16777 0.19943 -0.052826 0.1491 0.40088 -0.28397 0.26105 0.56537 -0.29873 -0.12706 -0.024114 0.045122 0.44517 0.0032456 0.15891 -0.38447 -0.29657 0.24374 -0.47886 -0.092393 0.40538 0.15251 -0.40827 0.0097534 -0.1397 -0.13792 -0.10827 0.062278 -0.46358 -0.2823 -0.35294 0.20107 0.19501 -0.18815 0.52363 -0.07202 -0.42042 0.029449 0.0184 0.0017816 0.19508 -0.25413 -0.24206 0.45157 -0.22106 0.053073 0.2046 -0.018319 0.046802 -0.17651 0.43536 -0.042706 -0.55776 0.078809 0.13819 -0.30882 -0.16899 0.14677 0.0371 -0.47703 0.11513 -0.74105 -0.18145 0.036539 -0.24886 0.10376 -0.1725 -0.27275 -0.097317 -0.16422 0.54477 0.30772 0.45868 0.20356 -0.13314 0.23888 -0.091107 -0.27856 -0.21344 -0.16951 -0.30328 0.038141 0.22274 0.3539 -0.14181 -0.20986 -0.15827 -0.030198 -0.32038 -0.18711 0.61979 
„organisiertes -0.26287 0.14678 -0.46116 -0.35752 -0.26947 -0.002633 0.010765 -0.24995 0.086325 -0.24064 0.33054 -0.60514 -0.15436 -0.26158 -0.27629 0.076118 -0.2368 0.063853 0.023355 0.22409 0.16257 0.14273 0.37136 -0.46772 -0.15679 -0.20446 -0.18153 0.19152 -0.022068 0.21354 -0.0061131 0.09572 -0.070883 -0.40036 -0.24345 0.022964 -0.21062 -0.51574 -0.093996 0.25373 -0.15056 0.30203 -0.10151 0.54115 -0.00058263 -0.33681 0.088395 0.23699 0.064724 -0.17956 -0.16966 -0.0050152 -0.044267 0.086071 -0.14481 -0.17639 0.0072391 0.06069 -0.1804 0.27993 0.37201 -0.044705 0.12522 -0.32389 0.18108 -0.54812 -0.10552 -0.37335 0.041567 -0.051186 -0.10096 -0.0078473 -0.48382 -0.48655 -0.17148 -0.11211 -0.05178 0.12068 -0.10942 -0.43226 -0.087067 0.12921 0.27157 0.15164 0.17287 -0.0043752 -0.21324 -0.23408 0.0088797 -0.087101 -0.025065 -0.090281 0.28797 0.14949 0.17699 0.1275 0.13041 -0.047607 0.024112 0.19664 0.023334 -0.41425 -0.19895 -0.51581 -0.20207 0.1722 -0.14184 -0.10685 0.032204 -0.21403 -0.075954 0.0876 0.040814 -0.044651 0.48686 0.1616 0.23025 0.31032 -0.59805 -0.65839 0.30137 -0.11815 0.093619 -0.26325 0.095799 0.20581 0.26045 0.22577 -0.18359 0.060761 -0.45098 -0.15503 -0.071167 -0.14354 0.16439 -0.13968 -0.34148 0.15149 -0.12582 -0.24472 -0.37865 0.23561 -0.25038 0.64388 -0.2191 0.18438 0.29587 0.21581 0.20071 0.28729 0.36279 -0.1366 -0.72452 0.27028 -0.17728 -0.057693 -0.48723 0.26343 -0.10217 0.045331 -0.29922 0.22081 0.25408 -0.31673 0.053839 0.06138 -0.12675 0.12983 0.20432 0.009927 0.13148 -0.18069 -0.013131 0.049866 0.42 -0.4958 0.021645 -0.28579 0.10552 0.15566 -0.29939 0.37569 -0.0053874 -0.04212 0.42219 -0.35626 0.30251 0.073062 0.084431 0.075062 0.36975 -0.12877 -0.03528 -0.24338 -0.37783 -0.22634 -0.12353 0.32984 -0.070391 -0.43277 -0.015548 -0.036638 0.16065 0.0016322 -0.097147 0.27901 0.0042916 -0.08888 0.17123 -0.24709 0.15104 -0.33925 0.11166 -0.26623 -0.26818 0.19268 0.19494 0.01728 0.38279 0.062534 0.5495 0.12034 -0.17304 0.1865 0.034496 -0.2686 -0.22975 -0.17716 0.075048 -0.086395 -0.054393 0.018145 0.084138 0.20675 -0.093463 -0.14163 -0.29737 -0.2158 -0.011985 -0.77377 -0.14927 0.28509 0.0098253 -0.00041113 -0.21881 -0.35736 0.38367 -0.32278 -0.11872 0.089199 -0.24842 0.32416 -0.30423 0.43014 0.099637 0.14519 0.25031 -0.19668 0.021275 0.41488 -0.14301 -0.16909 0.28967 0.26908 0.0094074 0.068027 -0.30054 0.35116 0.035538 0.107 0.0065257 0.013934 0.48886 -0.041428 0.20063 -0.31713 -0.15113 -0.33227 0.19641 0.026202 0.36565 -0.14304 0.050484 -0.041532 0.13286 -0.40684 -0.10745 -0.035102 -0.27563 -0.038848 -0.20179 0.22848 0.095765 0.19673 -0.1349 0.17933 -0.17917 -0.11001 -0.0033674 0.63581 
todiraș -0.4699 0.89461 -0.17946 -1.0165 0.63525 0.74781 -0.26146 -0.23945 0.69947 0.37073 0.23384 0.056246 0.31768 0.035724 -0.457 0.0089406 -0.32418 0.38229 -0.61821 -0.044164 -0.071846 0.49598 0.16231 -0.38182 -0.038361 -0.55108 0.39476 0.037127 -0.14177 -0.49186 -0.0031377 0.052423 0.60458 -0.50384 -0.13987 -0.1743 -0.27868 -0.25376 -0.56618 -0.11294 -0.22361 0.017291 -0.19282 0.63373 0.20637 -0.29356 -0.11074 -0.35447 0.062973 -0.30839 0.317 0.54757 -0.33525 -0.14893 0.01641 -0.62494 -0.48589 -0.12304 -0.046867 0.28762 -0.050596 0.19088 0.1576 0.42666 0.077249 0.092559 -0.19065 0.23157 -0.03322 0.26145 -0.21155 -0.63522 -0.14586 0.16539 0.24985 -0.17026 -0.025287 0.10901 0.022329 1.0402 0.21509 -0.14554 -0.21149 0.14863 0.30576 0.19195 -0.57082 0.54019 0.2617 -0.17304 -0.11524 0.16591 0.015468 -0.034291 0.065811 0.47611 -0.34437 0.15315 0.60686 -0.31324 -0.20915 -0.52087 -0.042002 -0.0058838 -0.35317 0.01 0.025363 0.38737 0.38055 0.062722 -0.090726 -0.47204 0.28325 0.094644 0.1263 -0.41388 0.44035 0.046536 0.0024658 -0.16586 -0.20601 -0.060314 0.12974 -0.12436 -0.21691 -0.20249 0.25969 0.016919 0.072649 0.296 0.44041 0.1682 0.038984 0.29955 0.44478 -0.10261 0.015549 0.1426 0.28257 -0.26364 -0.84928 0.13296 -0.038518 0.34289 0.23969 -0.45307 0.52404 -0.058308 -0.076498 0.48225 0.59035 -0.23088 -0.017528 0.39058 -0.29886 -0.3617 -0.089899 0.34645 0.25428 0.27355 -0.31115 0.060983 -0.29605 0.33386 0.15202 0.14885 -0.30521 -0.3626 -0.03011 0.16621 -0.27946 -0.011204 0.1222 0.13866 -0.45451 0.2107 0.15284 0.62456 0.1829 -0.044599 0.44632 0.43022 -0.15813 0.086085 0.40537 0.70215 0.2398 -0.1575 0.16375 -0.09209 0.27395 -0.7906 0.28934 0.35608 -0.065599 -0.30659 -0.087912 0.45881 0.099486 0.42869 0.24679 0.01359 0.215 -0.02261 0.28334 0.10972 -0.31958 -0.21384 0.15358 0.68785 0.15532 -0.1236 0.36922 -0.12312 -0.40972 0.073161 0.5003 -0.82171 -0.24635 -0.10421 -0.14392 -0.24188 -0.16096 0.083091 -0.72355 0.19678 0.086917 0.27426 -0.2553 -0.33481 0.36431 -0.20673 0.019425 -0.16762 -0.33365 -0.268 0.33948 0.067824 0.059605 -0.13437 0.055018 0.21039 -0.080433 -0.22747 0.043843 0.13685 0.067472 0.34017 0.12503 -0.35299 0.55242 0.014657 0.26909 0.04414 0.025097 -0.53465 0.21636 -0.22279 -0.16981 0.11137 -0.0144 -0.22194 0.36765 0.26095 -0.20644 -0.7818 0.36479 -0.20787 0.48695 -0.37621 0.10463 0.14995 0.093713 -0.23067 0.1128 0.54638 0.35159 0.12473 -0.013405 -0.010651 -0.7259 -0.11418 -0.030641 0.22078 0.13832 -0.19822 0.26453 -0.32319 -0.14194 -0.084042 -0.093106 0.043654 0.42304 0.22539 -0.34844 0.14379 0.29153 0.58079 0.41239 0.62164 
hintergrundannahme -0.3114 -0.10334 0.038082 -0.23003 0.12184 0.047627 -0.23507 0.14985 0.10875 0.072047 0.32736 -0.16481 0.10754 -0.059928 -0.25187 -0.12272 -0.29789 0.086678 0.0057099 0.24382 0.01837 0.16992 -0.35863 -0.063245 -0.26813 -0.20841 -0.22645 0.2758 -0.32404 0.26821 0.39699 0.20692 0.15023 0.096119 -0.10593 0.079508 -0.21236 -0.081385 -0.37402 -0.11037 -0.10039 -0.19654 -0.058374 0.16608 0.1017 0.28803 0.23955 -0.37668 -0.011165 -0.36758 -0.11121 -0.12328 0.24983 0.11394 0.025537 0.10168 0.0085919 -0.05379 0.14298 -0.15227 0.10681 0.10521 0.40116 0.070556 -0.091194 -0.15634 0.26469 0.2064 0.17223 -0.082643 0.22604 0.024949 0.07933 0.025497 -0.20063 0.198 0.20729 0.41364 0.050635 -0.30498 -0.13315 0.053907 0.2013 -0.071382 -0.10548 -0.22542 0.081375 -0.067356 0.025808 -0.20516 -0.010179 -0.033869 -0.10258 -0.036334 -0.13715 -0.066035 0.32651 0.67827 0.027119 -0.020253 -0.40367 0.057618 -0.22056 -0.1319 -0.19307 0.21383 -0.0074037 0.19095 -0.083116 -0.068562 0.059702 -0.082058 -0.066678 -0.062114 0.20539 0.0105 -0.062012 -0.072399 -0.54888 -0.16551 -0.2051 0.085972 -0.088653 0.51408 0.090291 0.34491 0.06677 0.43514 0.29257 -0.0080932 0.15067 -0.23412 -0.18145 0.19777 0.029295 0.029236 0.17437 0.1512 0.22066 -0.34564 -0.07538 0.26597 -0.41692 0.24542 -0.026771 -0.07495 0.091945 0.057343 -0.1478 -0.049669 0.13666 -0.27387 -0.034871 0.1879 0.0057703 0.059161 -0.20056 0.085372 0.12004 0.22847 -0.03149 0.15651 0.1038 0.018701 -0.27919 0.17205 -0.042121 -0.072426 -0.11018 0.034826 0.10533 -0.012354 0.027346 -0.061239 -0.078233 0.026041 0.022654 -0.1784 0.11173 -0.13187 -0.0037464 -0.017797 0.059314 -0.11138 -0.0080761 0.1166 -0.15261 -0.1834 -0.18594 -0.026749 0.24767 0.14104 -0.072066 0.20782 -0.15265 -0.2321 -0.1079 0.087728 -0.29107 -0.040776 -0.012318 0.13619 0.37039 -0.53523 -0.12951 0.26986 -0.15976 -0.13018 0.068129 0.24567 0.12166 -0.17033 0.11481 -0.12729 -0.49163 0.28468 -0.25287 0.16268 0.019002 0.27218 0.18539 -0.16594 0.0076866 0.25211 -0.082341 0.58156 -0.1958 0.075356 0.22308 0.074177 -0.0040841 0.51777 -0.2138 -0.11896 0.033574 -0.48559 -0.23893 0.0043224 -0.13736 -0.11721 -0.17761 0.15374 -0.21803 0.024161 -0.05516 -0.25584 0.12911 -0.25687 -0.21107 0.17111 0.14498 0.053391 -0.2618 0.17304 0.05776 -0.38013 0.33887 -0.33029 -0.3617 0.41326 -0.18197 -0.01263 -0.14237 0.18588 0.12176 -0.075349 -0.149 -0.023466 -0.0035853 -0.069137 0.29317 0.013362 0.48549 0.1234 0.079202 -0.11457 0.090518 0.057595 0.10289 0.032006 -0.24957 0.17232 -0.017206 -0.10021 0.36651 -0.10342 0.029561 0.028561 -0.096674 0.11019 0.21787 0.40439 -0.028422 0.099333 -0.19636 0.15119 -0.033007 0.34757 -0.094292 0.073967 
sorridere -0.38998 0.1239 0.0070914 -0.25776 0.34798 0.15038 0.061207 -0.27436 -0.00019932 0.46509 -0.0031127 0.23772 0.29287 0.085426 -0.041518 0.25055 -0.22295 -0.13381 -0.26147 -0.4437 0.19724 0.43813 0.0078348 -0.38337 -0.12853 -0.42513 -0.14507 -0.091544 -0.52859 -0.013248 0.61861 0.27836 -0.22301 -0.34294 -0.51047 -0.43478 -0.39487 -0.10726 -0.28211 -0.0033027 0.12405 -0.077252 -0.38669 0.42724 0.44646 0.082721 -0.21363 -0.097919 0.10939 -0.1858 0.32388 0.56383 0.017787 0.017131 0.21047 -0.37215 -0.075553 0.028537 0.15127 0.099097 -0.13396 -0.027504 0.14804 0.068028 0.075972 0.069549 -0.31367 -0.12652 0.17816 0.15645 -0.13422 -0.10875 0.28723 0.51321 -0.0087518 0.010841 0.037242 0.016314 0.20087 0.14912 -0.035179 -0.15167 0.10253 0.20701 -0.17508 0.13941 -0.12696 0.047703 -0.06596 -0.71756 -0.19649 -0.13623 0.21022 0.066868 -0.1932 0.20244 0.11163 0.18401 0.044208 0.074296 0.15695 0.16402 0.22297 -0.15493 -0.044787 -0.22033 -0.28365 -0.14872 0.16154 0.23185 0.33605 0.24906 0.052557 0.082491 0.079003 -0.015733 -0.036651 0.11741 -0.19623 -0.19096 -0.26602 0.036538 0.43823 -0.065088 -0.1776 0.33723 -0.065179 0.11363 0.32288 0.064086 -0.25652 -0.096463 -0.028498 0.33166 0.079942 0.029073 -0.27929 0.2916 -0.23915 -0.098479 0.15478 -0.18816 -0.27815 0.30169 0.25176 -0.048954 0.083202 0.025999 -0.37697 -0.42281 0.25893 0.088236 -0.21799 0.23179 -0.49876 -0.13157 -0.027967 0.25516 -0.13331 0.1441 -0.18701 0.12013 0.11124 0.21188 0.16633 0.098034 -0.12633 -0.085762 0.11567 0.34093 0.026443 -0.056277 0.10695 -0.29363 0.087165 0.21924 -0.043212 -0.14118 0.52438 -0.071629 0.22071 0.048798 -0.168 -0.057555 0.19241 0.38408 -0.20598 0.035857 0.11988 -0.27671 0.062128 -0.13615 0.68941 0.020388 -0.19202 -0.097786 -0.0265 0.1956 -0.15301 -0.14295 -0.27977 0.051542 0.33564 0.30249 -0.00051595 0.22865 -0.054648 0.0098913 0.027114 -0.11982 0.28741 0.10494 -0.050211 0.022611 -0.041948 0.40994 0.36048 0.0015899 0.01117 0.102 0.28284 -0.25699 -0.19297 0.37026 -0.36548 0.09812 0.13009 0.096235 -0.071978 -0.22798 0.16661 -0.10826 -0.13177 0.054489 -0.03033 0.063828 -0.075721 0.11194 -0.13878 -0.00038525 -0.19319 0.23452 0.22697 -0.34289 0.22348 -0.22201 0.10862 0.077184 -0.061627 0.4574 -0.17572 0.34546 -0.36371 0.032447 0.0086676 -0.38666 0.23307 -0.43577 -0.28971 -0.073984 0.35713 0.042929 0.20147 0.27026 0.020879 -0.17675 -0.30994 -0.057453 0.0057559 0.031379 -0.078577 -0.25529 0.18202 0.19903 0.1391 0.26978 0.14305 0.087628 0.17432 0.28657 -0.051838 -0.12842 -0.18383 0.041284 -0.17157 0.018057 0.16189 -0.1307 -0.10669 0.39015 0.020785 0.073931 0.075776 0.11257 0.31049 -0.016028 0.07515 0.10786 0.21151 0.146 
strategieprofil 0.069703 -0.25192 -0.09999 -0.62935 0.073301 0.37858 0.11706 0.025718 -0.052556 -0.13189 0.010731 -0.19628 -0.054993 -0.30085 -0.18891 -0.29662 -0.089918 0.05267 0.090495 0.11504 -0.33107 -0.14886 0.10169 0.027218 0.0058374 -0.116 -0.3635 -0.0050933 -0.16349 0.084615 0.22322 0.1807 0.02242 0.041858 0.20453 -0.010036 0.25531 -0.16578 -0.26423 0.26994 0.18957 0.14101 0.23566 -0.018168 0.2007 0.073717 0.27171 -0.39514 -0.18167 -0.42705 -0.043472 0.1153 0.20136 -0.16516 -0.3297 -0.37263 -0.24819 -0.0091559 0.28712 -0.035387 0.15774 -0.13273 0.61629 -0.19904 -0.040003 0.12275 -0.0036098 0.32293 0.36593 -0.0026803 0.2353 -0.22558 0.17824 0.20787 -0.21403 0.044204 -0.11217 -0.1326 -0.25147 -0.085433 -0.081917 0.29152 0.33304 0.11212 -0.18797 -0.11236 0.23341 -0.13761 -0.212 -0.011825 -0.075344 0.36633 0.15402 0.12386 0.085936 0.10584 0.13249 0.15043 0.11914 -0.096959 0.039659 -0.41157 -0.28266 -0.16227 -0.33081 0.15446 -0.33607 0.096641 0.045001 -0.29765 -0.51144 -0.14065 -0.14842 -0.18086 -0.072093 -0.16471 0.053656 0.21923 -0.14588 -0.28701 -0.15633 0.14555 -0.031464 0.13333 0.010451 0.1505 0.54748 0.37356 0.19005 -0.19725 0.41021 0.22837 0.080524 0.33806 0.051581 0.13801 0.16142 0.16792 -0.16667 -0.37279 -0.20806 0.37371 -0.23111 0.21974 -0.22036 0.33806 0.45998 0.22881 -0.21637 -0.019092 -0.065432 -0.096508 -0.13752 0.50077 -0.19205 -0.44752 0.14234 -0.20196 0.15474 0.11927 0.15094 0.091834 -0.051209 0.181 -0.15551 0.11719 0.077897 -0.26599 -0.19419 0.10053 -0.29024 0.26383 0.63268 0.22288 0.047163 0.16552 -0.28533 -0.50836 0.43291 0.1512 -0.049057 0.33174 -0.088677 -0.014415 -0.035853 -0.13084 -0.10684 -0.21122 -0.27937 0.066296 0.99798 -0.17171 0.1166 0.19022 -0.22465 -0.32608 -0.31489 0.0092672 -0.2222 -0.077159 0.36842 -0.1333 0.30691 -0.00057064 -0.019274 0.12544 -0.12853 -0.24591 0.22542 0.13361 0.49416 0.25479 -0.27457 -0.14278 -0.54894 0.13809 0.015831 -0.23068 0.32928 0.11926 0.15574 0.11272 0.14945 0.32197 -0.45106 0.29955 0.38808 0.31016 0.0049941 0.22097 -0.20959 0.078414 -0.68339 -0.17635 -0.13235 -0.57742 -0.30999 -0.011022 0.017776 -0.66676 0.13411 0.014115 -0.11663 -0.16114 0.085864 -0.21409 0.54205 -0.19811 0.1724 -0.11127 -0.16316 0.087063 0.32647 0.1594 0.25276 -0.27024 0.56526 -0.42321 -0.27431 0.27562 -0.42397 -0.45948 0.17078 0.43344 0.23871 -0.1238 -0.19008 0.1428 0.21947 0.29807 -0.30875 0.32101 0.3452 -0.12978 -0.0032617 -0.2437 0.037988 -0.054229 -0.015165 0.57805 -0.34406 0.28287 -0.065823 -0.033243 0.017455 0.21595 -0.058435 -0.0987 -0.21856 -0.14048 0.31095 0.10861 0.093315 -0.054263 -0.32373 0.095479 -0.19887 -0.02354 0.041213 0.27005 
navesi -0.86042 0.66678 -0.56833 -0.25678 -0.059651 0.65939 -0.36938 -0.64717 0.20205 0.59817 0.49526 0.22844 0.41843 0.1638 0.54196 -0.050456 -0.60338 -0.23249 0.42156 -0.19724 -0.067975 0.56779 0.73286 -0.38718 -0.089963 0.051886 0.095288 0.36595 -0.14881 0.28826 0.58688 0.043239 0.074561 -0.53239 0.17846 0.43247 -0.18183 -0.30811 -0.22689 0.34568 -0.094472 -0.68379 -0.38056 0.62284 0.11867 -0.076076 0.13798 -0.33491 -0.025994 0.15413 0.56196 -0.087243 -0.16471 0.28979 -0.28889 0.14443 -0.47807 0.34467 0.75417 0.15162 -0.22239 -0.21067 0.61144 0.21874 -0.082227 0.28504 -0.52277 -0.024736 -0.0516 -0.21333 -0.55593 -0.21034 0.10459 -0.075065 0.30764 -0.11646 0.39086 -0.25548 0.13843 0.16489 0.36376 -0.50707 0.15242 0.15981 0.21383 -0.17729 -0.87536 0.56644 -0.41285 -0.11033 0.15668 -0.083217 0.00092813 -0.47286 0.11167 0.18133 -0.013423 0.33603 0.34633 -0.25425 -0.11986 -0.28514 -0.10051 0.20894 0.1923 0.14173 -0.86286 0.16925 -0.22673 0.22246 -0.14828 -0.26358 -0.099099 -0.015183 0.60494 -0.035015 0.26279 0.11449 -0.025736 -0.19035 -0.15855 0.43396 0.64353 0.012228 -0.10598 0.40904 0.75641 -0.21724 0.25064 0.39204 -0.11058 -0.12618 0.0052721 0.051032 -0.1661 -0.75867 0.13286 -0.30192 -0.17902 -0.48361 -0.36323 -0.18418 -0.2402 0.05217 -0.21356 -0.38376 0.065611 0.46136 -0.083181 0.18946 0.24313 -0.63172 0.21701 0.2402 -0.296 -0.086047 0.016977 0.12647 -0.2161 -0.27055 0.41974 -0.13517 -0.15292 0.37269 -0.1899 0.33392 -0.29944 -0.2308 -0.32564 0.26291 -0.3514 -0.027204 0.055233 0.094074 -0.36707 0.078078 0.010466 0.34866 0.28299 0.075021 0.034792 -0.58501 -0.35558 -0.19216 0.55732 0.35209 0.44613 -0.26948 -0.21595 0.1234 0.13848 -0.49188 0.47191 1.0366 0.090609 0.28233 0.032544 0.36905 0.36523 0.65475 0.4248 0.085252 0.86174 -0.25083 0.41375 0.30623 -0.38653 0.18181 0.47672 -0.45668 -0.27696 0.025932 0.073022 0.25369 -0.17187 0.18718 0.55895 0.095732 0.083507 -0.24269 0.28399 0.44172 -0.16241 0.6203 -0.88772 0.53414 0.32422 0.27224 -0.31176 -0.5022 0.34636 0.16713 -0.66292 -0.22456 -0.0083158 -0.27099 -0.23082 -0.33343 0.15158 0.252 -0.35748 0.44343 0.058403 -0.30759 0.59352 0.052223 0.19579 0.15754 0.32858 0.59107 -0.24847 0.49255 -0.15353 -0.21576 0.20209 -0.56535 -0.31215 0.10075 -0.17935 -0.23157 0.29006 -0.22885 0.46856 -0.069407 -0.20821 -0.21221 -0.14662 0.076841 -0.077087 -0.16658 -0.4002 -0.033033 0.4785 0.23158 -0.12992 0.025556 0.18552 0.56793 0.62436 0.36148 -0.26648 0.072247 0.10974 -0.059394 -0.044496 0.14667 -0.1709 -0.31942 -0.098178 -0.34048 0.018262 0.22748 -0.29059 -0.087589 -0.13471 -0.3969 0.44077 -0.050825 -0.20949 0.24046 
quadripustulata -0.15336 0.27892 0.0096348 0.028702 0.23973 0.44165 -0.010848 -0.39593 -0.013027 0.32886 0.013944 0.19654 0.15098 0.023047 -0.28806 0.22028 -0.26149 0.22443 -0.049062 0.1369 0.017572 0.51946 -0.019657 -0.011802 -0.18073 -0.051012 -0.11315 0.027025 -0.32368 -0.13837 0.1688 0.048617 0.2319 0.029721 -0.27068 -0.49734 -0.17457 -0.54513 -0.5429 0.12787 -0.031892 -0.21855 -0.13064 0.39161 0.11403 -0.17261 0.3295 -0.41448 -0.19247 -0.47341 0.023005 0.17306 0.15814 0.34923 -0.17464 -0.2285 -0.099669 0.057847 0.54637 0.29345 -0.021735 0.55682 0.7811 -0.13886 0.037283 0.45375 -0.27291 0.34148 -0.14447 0.19213 -0.13966 0.28555 -0.20947 0.45105 -0.19524 -0.1214 -0.17245 0.081482 -0.39658 -0.082186 0.18252 -0.062115 -0.1741 0.0585 -0.23004 0.091387 -0.29581 -0.35713 0.109 -0.1254 -0.094194 -0.32694 0.084092 -0.25221 -0.18892 0.63178 0.081495 -0.14685 0.33334 0.17822 -0.36371 0.014933 0.19762 -0.022757 -0.21714 -0.18343 -0.40112 0.052651 -0.26502 0.12888 0.065209 -0.38958 -0.0022949 0.18134 0.10678 -0.32934 0.13134 0.36748 0.034309 0.0081741 -0.24397 0.56845 0.22659 -0.25672 -0.09449 -0.1597 0.14222 -0.11997 0.0060785 0.26922 0.339 -0.16871 0.22561 0.86589 -0.23599 0.11205 -0.020851 0.19944 0.17777 0.028137 -0.61441 0.45429 0.13475 0.34426 0.61164 -0.49439 0.43842 0.17188 -0.29134 0.58378 0.10963 -0.24572 -0.14543 0.20793 -0.093938 -0.39996 -0.37721 0.030261 0.84097 0.33324 0.079905 -0.2104 -0.54247 0.73545 -0.20424 0.069488 -0.1595 0.013074 -0.4014 0.65203 0.006382 -0.29589 0.31488 -0.14879 -0.31986 -0.221 0.020448 -0.080388 0.22919 -0.093037 0.23405 -0.18216 -0.11393 0.0071372 0.1757 -0.16579 -0.10704 -0.43683 0.031556 -0.22917 0.10828 -0.1174 -0.013239 0.40038 -0.44045 -0.052044 -0.032587 0.22277 -0.22796 -0.14301 0.11391 -0.084409 0.23221 0.044933 -0.067874 0.3164 0.35385 -0.62372 0.052855 0.12268 -0.081979 0.028398 -0.16825 -0.086317 -0.13017 0.12264 0.38514 0.2057 0.055149 0.1207 0.078152 -0.040587 0.13443 0.33404 -0.20217 -0.1843 0.19039 0.36903 -0.26665 0.023113 0.33805 -0.090865 -0.022631 0.087041 -0.23258 0.19915 -0.025613 -0.033358 0.2992 -0.048954 -0.072663 0.40597 -0.04539 -0.33808 -0.031584 -0.12249 -0.31176 0.11932 -0.44331 0.11111 -0.41898 -0.10685 -0.066727 -0.27094 0.13133 -0.53417 0.042558 0.0015648 0.020179 0.26211 0.1875 -0.15158 -0.05816 -0.076938 0.055145 0.091047 0.15243 0.15951 0.43123 -0.25653 0.13948 0.19654 0.47569 0.16013 0.36496 0.37685 0.33331 -0.020326 -0.041312 0.21604 0.067286 0.091768 0.060601 -0.21924 -0.11882 -0.56281 0.30056 -0.080539 -0.18651 0.18122 -0.091962 -0.060357 0.26754 0.66287 -0.18368 -0.22131 0.09892 0.41771 0.22424 0.45927 
rightmire -0.06083 0.36054 0.053673 0.15153 0.41117 0.43751 -0.0075305 0.22564 0.053334 0.21213 -0.14072 -0.16028 0.22614 0.11239 0.067649 -0.18845 -0.16635 0.35601 -0.1566 0.16246 -0.10327 0.12563 -0.049109 0.033283 -0.36537 -0.12631 -0.16512 0.1258 -0.54091 -0.25598 0.35095 0.023609 0.13265 0.22482 -0.1368 -0.834 -0.091869 -0.072758 -0.41699 -0.046855 -0.23698 0.25808 0.012792 0.20005 0.060718 0.19679 0.35753 -0.43417 -0.35097 -0.01093 0.091137 0.078814 0.12888 0.10415 -0.15601 0.034339 0.12024 -0.027749 -0.000679 -0.25821 -0.27634 0.037383 0.33786 0.32493 -0.46901 0.18265 -0.16283 -0.021262 -0.023263 0.0093377 0.11924 0.2418 -0.1437 0.12783 0.17772 -0.22845 -0.1454 -0.28797 -0.056046 0.23419 -0.44949 -0.046055 0.10374 0.16199 0.20385 -0.25446 -0.095601 0.32853 0.11906 -0.036536 0.044782 -0.10168 -0.27838 -0.00033388 0.25862 0.079184 0.093893 0.19318 0.19879 0.34348 -0.083756 0.13734 0.09395 -0.054065 -0.022789 -0.16004 0.041767 0.26573 0.0099643 -0.088781 0.35451 0.3668 -0.38571 0.11968 0.0387 -0.57945 0.13585 -0.024494 0.1465 -0.18629 -0.44511 0.068022 0.18783 0.30706 -0.093058 0.2102 0.19234 0.3192 0.097761 -0.074334 0.17896 -0.27657 0.15578 0.43327 0.0012247 -0.13211 -0.18392 -0.1177 0.22622 -0.00028358 -0.26234 0.49166 -0.064081 0.2856 0.0052775 -0.23127 0.46872 0.23433 -0.14935 -0.13938 0.22737 -0.083046 -0.0077479 0.30965 -0.1862 0.0022053 -0.06849 0.24658 0.16695 -0.063812 -0.080644 0.32633 -0.080927 0.16892 0.048373 -0.015098 -0.31267 0.14974 -0.021296 0.10789 0.065047 -0.23023 0.28528 -0.057988 0.018778 -0.13943 0.049973 -0.55374 0.1982 0.015632 -0.054724 0.043418 -0.29431 0.10175 0.16387 0.16638 -0.2281 0.25167 -0.10516 0.32197 0.062128 -0.32444 0.34972 0.144 0.12309 -0.043312 -0.15508 0.16247 -0.16942 -0.065399 0.22011 -0.086952 0.040868 -0.0055048 -0.21302 0.34488 0.11667 -0.24711 0.38428 0.24426 -0.027853 -0.27233 0.31457 -0.045725 -0.69254 0.33026 0.26196 -0.074064 0.33742 0.095994 -0.23202 -0.18148 -0.18484 0.032128 -0.29089 0.094631 -0.20191 -0.0041718 0.13203 0.1531 0.22291 0.22255 -0.42325 0.015045 0.076357 -0.69751 0.10557 0.10167 0.40619 -0.37735 0.23645 0.057454 -0.62341 -0.13871 0.32928 -0.071521 0.23545 -0.011945 -0.29687 -0.13563 0.052706 0.23288 -0.20813 -0.30867 -0.21542 0.022389 0.0018309 -0.20025 -0.33081 0.26913 0.059805 -0.12754 -0.053316 0.38608 -0.03272 -0.1814 -0.30842 0.026209 0.11809 -0.049873 -0.10419 -0.0961 0.19741 -0.499 0.090481 -0.089794 0.26597 -0.017901 -0.21483 -0.2356 0.12864 -0.11251 -0.071325 0.28162 0.0085853 -0.23257 -0.35725 -0.39079 -0.049043 0.16551 0.051542 -0.24686 -0.041227 -0.32642 -0.051328 0.048215 -0.22533 0.4263 -0.33964 0.037443 
halbjahresabonnement -0.117 0.23852 -0.29543 -0.10453 -0.051103 0.035016 -0.27765 0.11404 -0.067373 -0.038089 0.064398 -0.38983 -0.27396 0.017305 -0.27321 -0.17762 -0.0097567 0.084058 -0.023128 0.041504 -0.16559 0.29819 -0.17332 0.46731 0.075166 -0.34859 -0.015159 -0.16471 0.093431 0.04365 0.30811 0.22169 -0.20336 -0.34381 0.18732 0.28041 0.31471 0.21178 0.011161 0.38875 0.26399 0.12983 -0.15855 -0.030889 -0.085654 -0.16977 0.11192 -0.52502 0.12429 -0.098244 0.55486 -0.43256 -0.30566 0.11839 0.058855 -0.29072 -0.29234 -0.45355 0.037964 -0.31285 0.013234 -0.23965 -0.24589 -0.043559 -0.01953 0.14449 -0.19723 0.094843 -0.15259 0.14045 0.13529 -0.1069 -0.011131 -0.24292 0.081546 -0.069375 0.034708 0.29782 -0.055145 -0.027032 0.282 0.079935 0.26459 0.28767 0.45812 -0.12302 0.37129 0.22083 -0.042424 -0.050231 -0.2334 -0.011938 -0.12417 0.067232 0.096556 -0.16876 -0.14408 0.33375 -0.096589 -0.15043 0.30098 -0.15465 -0.1605 0.044016 0.070205 0.18455 -0.017873 -0.25166 -0.06735 -0.29853 0.32741 0.00080492 0.17863 0.018272 0.20002 0.05703 0.50364 0.1672 -0.18077 0.39536 -0.12924 -0.004595 -0.23409 0.044228 -0.23582 0.039256 0.28486 -0.1715 -0.13778 -0.39948 0.060319 -0.26363 -0.22684 0.0042473 0.50593 0.32028 -0.051277 0.36371 0.0097714 -0.07776 -0.46314 0.066294 -0.45726 0.89894 -0.74485 0.12325 0.58344 0.27151 0.057057 -0.27774 0.45046 -0.22353 -0.41711 0.32631 -0.43239 0.00090825 -0.77009 0.31438 0.39048 0.23396 0.34476 0.051557 -0.26321 -0.092418 0.0012863 -0.18349 -0.68412 -0.44162 -0.513 0.331 0.068516 -0.082834 0.051391 -0.19667 0.016206 -0.14424 0.20109 -0.15182 0.56066 0.081844 0.17769 0.20958 -0.14357 -0.55205 -0.018415 0.0076454 0.18769 -0.12967 0.011883 0.15374 -0.084737 -0.28604 0.18713 0.23804 -0.44628 -0.3895 -0.29547 -0.052302 0.19011 -0.040032 0.26841 -0.16893 0.22499 -0.16198 0.10239 0.056886 -0.3609 -0.15589 0.070965 0.084625 0.1785 0.14501 0.17679 -0.4234 -0.53316 -0.25726 -0.1367 -0.096053 0.11432 0.44779 0.50492 -0.017142 -0.016945 0.24258 -0.33431 0.15311 0.35733 -0.23062 0.078002 -0.39538 0.074467 -0.0038092 -0.17132 -0.12375 0.10191 0.16052 -0.2052 -0.22018 0.27235 -0.20444 -0.023558 0.17711 0.084971 -0.18541 0.065002 0.14902 0.42032 -0.064707 -0.14425 0.36404 -0.3824 0.14861 0.032822 0.058358 0.16839 0.12943 0.2952 -0.036643 -0.20343 0.28393 0.33029 -0.098327 0.23771 0.087797 0.047512 0.027584 -0.30998 -0.3384 0.19033 0.067236 -0.096408 -0.11809 0.40956 -0.25339 0.60451 -0.40128 -0.065986 0.26596 -0.11296 0.022136 -0.021337 -0.36371 -0.047286 -0.21611 0.25952 0.014994 -0.059826 -0.22978 0.30317 0.075642 -0.025747 -0.3659 0.26748 0.17803 0.056803 -0.24676 -0.11867 0.41008 0.26093 0.43725 
davorstand -0.29375 0.21225 0.11728 -0.33048 0.25494 -0.086804 0.0065057 -0.52256 0.044078 0.19858 0.050254 0.10147 0.21761 0.11804 0.2715 0.10773 0.39664 0.27078 0.2022 0.0007237 0.16402 -0.37477 -0.41191 -0.014925 -0.20752 0.25754 -0.017223 0.22708 0.0877 0.01403 -0.086994 0.21565 -0.019124 0.16374 -0.21339 0.16487 -0.039553 -0.20568 -0.28238 0.077646 0.19179 0.10279 -0.093375 -0.083066 -0.21894 -0.46741 -0.42097 0.21649 0.064298 -0.39349 0.10598 0.081663 -0.25309 -0.026238 0.11637 -0.23263 -0.061787 -0.24895 0.13644 0.51227 -0.059257 -0.048862 0.43045 0.29649 -0.28299 -0.46827 0.46566 0.005844 -0.30852 -0.16051 -0.53419 -0.32954 -0.36866 0.2453 -0.14049 -0.097254 0.012228 -0.091824 -0.087893 -0.42383 0.33514 0.055229 0.68495 -0.10039 0.6086 -0.17164 0.083261 0.16057 -0.13982 -0.23104 0.070887 0.10919 0.21819 0.24498 0.22168 -0.45663 0.21067 0.30183 -0.11776 0.096318 -0.030885 -0.053001 0.489 -0.16814 -0.094596 -0.099718 0.068304 0.03581 -0.086517 0.083855 -0.030693 0.13879 -0.016259 -0.15054 0.15159 0.15054 0.12382 -0.3543 -0.19285 0.22032 -0.11496 -0.10468 -0.26633 -0.03047 -0.19336 0.058661 0.34896 -0.11399 0.06738 0.17964 0.18796 -0.25519 -0.24029 -0.24582 0.26322 -0.18614 -0.29373 -0.010667 0.27338 -0.09452 -0.34882 0.24042 0.39164 0.30847 -0.24293 0.18616 0.19433 0.36667 0.042437 0.44576 0.46345 -0.041749 -0.21071 0.03555 0.20714 0.5154 -0.41918 0.57022 -0.062259 0.15749 0.20566 0.12499 -0.046728 0.237 -0.039588 -0.12693 -0.38184 -0.0095071 0.13036 0.29834 -0.11228 -0.47631 0.24935 -0.13798 0.14505 0.07645 0.025981 -0.14622 -0.043616 0.2087 -0.2699 0.13952 0.10554 -0.41259 -0.11561 0.53585 0.11468 -0.087607 -0.43597 0.33122 0.081184 -0.21004 0.20963 0.020211 -0.12938 -0.38333 0.087614 0.3563 -0.22603 0.053469 0.21528 0.068152 0.14004 0.4251 0.028415 -0.20368 -0.33393 -0.12881 0.026263 0.33387 0.51967 -0.35228 0.54441 -0.20992 -0.74579 0.11555 -0.013141 0.040964 0.36977 0.23019 -0.015943 -0.05898 0.050902 0.50725 -0.33166 0.34752 0.47817 -0.26487 0.33657 0.04501 0.41139 -0.27004 -0.43799 -0.21516 -0.10683 -0.074137 -0.15752 0.16024 0.40322 -0.33985 0.52327 0.037787 -0.026089 0.20275 -0.44705 0.25256 0.26096 0.010894 -0.43028 -0.040671 -0.45496 -0.1428 -0.12173 -0.022785 0.27807 -0.27997 0.10209 -0.026123 0.10108 -0.15021 0.3563 -0.19097 0.40928 0.12185 -0.098124 -0.063845 0.12741 0.43926 0.24362 0.064023 0.19908 0.6873 -0.14614 0.03751 -0.015697 0.18548 0.19988 0.14252 -0.6382 0.36497 0.0077808 0.19376 0.18217 0.19341 0.12197 -0.27933 -0.23907 -0.18557 -0.17367 0.054532 0.087214 -0.27619 0.31436 0.40237 0.09387 -0.22955 -0.070523 -0.092635 0.15868 0.27514 
steenaben -0.14943 0.36386 -0.084284 -0.044937 0.09991 0.27174 -0.17993 0.24036 0.37428 0.026528 0.013024 -0.08732 0.065086 -0.27675 0.17242 0.51062 0.33918 -0.10455 -0.036004 0.024133 0.031874 0.23805 -0.28072 -0.10001 -0.052764 0.0743 -0.35658 0.017 -0.12728 -0.062526 0.018621 0.35978 -0.26383 0.082006 0.013527 -0.20626 -0.14716 0.12077 -0.33897 0.20021 -0.27462 0.29069 -0.22629 0.15358 0.0092333 -0.19408 -0.083828 -0.30344 -0.097201 0.031098 0.0041546 0.019965 -0.13859 -0.13978 0.12788 -0.068669 -0.41938 0.21951 -0.076065 0.1503 0.14292 0.23057 0.18959 0.011263 -0.18235 0.42375 0.15003 0.052014 -0.29809 -0.10464 -0.11418 0.19961 0.022638 -0.035947 0.14095 -0.098475 0.28224 -0.26164 0.074074 -0.123 -0.25074 0.064994 0.17013 0.22538 0.13538 0.1946 0.095325 0.26885 0.060391 -0.054353 0.12689 -0.10391 0.15805 -0.30538 -0.1302 -0.11973 -0.087638 0.15333 0.027913 -0.077018 -0.11025 0.0043885 -0.18077 -0.0032863 0.013881 0.26391 -0.34513 -0.32011 -0.044405 0.23884 -0.07503 -0.016575 0.12107 0.096074 0.021406 -0.075776 0.002022 0.17311 0.13935 -0.18049 -0.2527 -0.02087 0.27177 0.20239 -0.085081 0.41072 0.18335 -0.17502 -0.19207 0.21253 -0.15821 0.19332 0.16078 -0.10185 0.041598 -0.22407 0.31499 0.075283 0.059598 0.049765 -0.33937 0.37459 0.0292 0.3535 -0.039915 -0.19991 0.30674 0.022529 -0.17592 -0.048458 0.2309 -0.14197 0.020299 0.17441 -0.19821 0.26929 0.069309 0.10691 0.039192 0.26785 -0.072701 0.21462 -0.17372 0.12015 -0.44235 0.19996 -0.12603 0.028811 -0.15028 -0.052596 -0.45926 -0.19248 0.24779 0.24265 0.041293 -0.01987 0.2512 -0.39166 0.15438 -0.28754 -0.037884 -0.057341 -0.18079 0.017427 0.39361 -0.21952 0.06285 0.052292 0.1116 0.060762 -0.038409 -0.47752 0.04593 -0.21777 0.12178 0.068073 -0.43495 0.20538 -0.38188 -0.29149 -0.12511 0.17413 0.017213 0.037034 0.044282 -0.071914 -0.035981 -0.02091 0.23949 -0.13976 0.1149 0.23791 0.20179 0.18009 -0.43705 0.22708 0.25295 0.028852 0.20945 -0.013201 0.027664 -0.33613 -0.12841 -0.041801 -0.23651 0.19585 0.41276 0.17876 0.084503 0.14496 0.1179 0.082324 -0.079839 -0.13066 0.24132 -0.1771 -0.0045233 -0.38023 0.08064 -0.13156 -0.12321 -0.043818 -0.35537 0.11553 0.076995 -0.0065077 0.18499 -0.38611 0.027766 0.25727 -0.28723 0.2663 -0.29976 0.1231 -0.2166 -0.21682 0.20151 -0.22379 -0.1769 -0.067779 0.022973 -0.10258 0.053261 0.32035 -0.026927 -0.2873 -0.22903 0.072226 -0.011415 -0.18464 0.16682 0.027925 0.48385 -0.24645 -0.061655 0.24839 0.24666 0.024453 -0.25819 0.084878 0.057635 0.34094 0.18067 0.34129 0.13815 -0.65578 -0.17638 0.0012722 0.050011 -0.030988 0.14754 0.04189 0.08457 0.17896 -0.33259 -0.25656 -0.073233 -0.090619 -0.13889 0.32972 
gläsgen -0.099363 0.22669 -0.52785 -0.055289 0.35393 0.20298 0.005466 0.064231 0.13538 0.010674 -0.091456 0.20361 0.2225 0.019922 -0.23845 -0.043829 0.2843 0.26884 -0.27123 -0.09704 0.30196 -0.15039 0.12001 0.065202 0.10899 -0.18372 -0.32671 0.29422 -0.0021436 -0.1213 0.17373 -0.085484 0.025923 -0.16134 0.11134 -0.22954 0.18373 -0.18288 0.14641 -0.11014 -0.014541 0.038254 -0.33812 -0.12415 0.061144 -0.24233 -0.074526 0.18581 -0.21277 -0.22348 0.28634 0.072137 -0.28375 0.10403 0.20996 -0.25003 0.12497 0.28848 -0.32283 -0.070035 -0.1822 -0.11684 0.37815 0.18414 -0.30015 -0.22535 0.14231 0.16741 -0.030229 0.20382 -0.1976 -0.43632 -0.034463 0.47854 -0.53548 0.31438 -0.10201 -0.0015391 -0.050571 -0.16706 -0.11875 -0.12279 -0.14895 0.04423 -0.12279 -0.38014 0.17323 0.07031 -0.17231 -0.50212 0.22826 0.10347 -0.0099522 -0.43038 0.022926 -0.17622 0.24588 0.23921 0.15381 -0.057867 0.0052011 -0.24259 0.1973 0.14598 -0.090293 0.28937 0.057089 0.21085 0.14554 0.10367 0.038365 -0.16262 0.060464 -0.43002 0.0088523 -0.32719 0.33415 -0.0065414 0.03146 -0.38463 0.11291 -0.063314 0.22232 0.24117 -0.044951 0.43645 0.050485 0.25644 -0.013132 0.16924 -0.065331 0.064446 -0.11504 -0.11952 -0.012012 -0.048395 -0.15976 -0.027167 0.071826 -0.098377 -0.091607 -0.16075 0.37086 0.20771 0.073446 -0.2694 0.31832 -0.2325 -0.13154 -0.11482 0.1064 -0.071602 0.15157 -0.16421 -0.25579 0.17538 -0.61009 0.022552 0.24652 0.02465 0.21771 -0.029736 -0.083972 0.016722 -0.48668 -0.0019864 -0.33413 -0.039867 0.032631 0.046703 0.077594 -0.079623 0.38869 0.06218 0.047395 -0.18202 -0.0082779 -0.035926 -0.14038 -0.090764 -0.24883 0.39886 -0.059845 0.0039127 0.085423 -0.019588 0.33544 -0.14406 -0.11475 0.22231 0.02926 0.12634 0.17886 0.030887 0.038569 -0.20176 -0.10382 0.28751 -0.034316 -0.17424 -0.38312 -0.066829 -0.0055258 0.12772 0.11754 -0.080194 -0.17062 -0.10525 0.13643 0.058516 0.48926 0.11185 0.36921 -0.069056 -0.20911 0.0046093 -0.044545 -0.1127 -0.056452 -0.22459 -0.073289 0.049399 0.085324 0.051086 -0.1884 -0.092317 0.082528 -0.22685 -0.26754 0.24221 0.18687 -0.17105 -0.26085 -0.18747 0.26532 -0.03736 -0.23224 -0.33541 0.031697 -0.351 0.03794 0.17189 -0.20007 0.48722 0.059019 0.14394 -0.010597 0.51986 -0.11348 -0.25696 -0.18333 -0.2259 -0.38379 0.073926 -0.15848 -0.39 0.16684 -0.34182 -0.12326 -0.082013 -0.07671 -0.80244 0.26824 -0.13898 -0.091815 0.44237 0.055462 -0.070554 0.06368 -0.37968 -0.12287 0.48699 0.16666 -0.25928 0.38981 -0.02242 -0.047043 -0.092089 -0.29271 0.61935 -0.2537 0.29326 0.22452 0.41469 0.17753 -0.27624 -0.59822 -0.038502 -0.3951 0.0047937 0.12819 0.015599 0.049755 0.28052 0.019678 -0.21523 -0.20171 -0.31951 0.10392 0.34473 
herrschaftsstellung -0.09114 0.3237 -0.46705 -0.32543 -0.030475 0.22779 -0.47196 0.050664 -0.19252 0.031316 0.28192 -0.12618 -0.087633 0.07188 -0.08197 0.31601 -0.49738 0.16206 0.07526 0.043867 -0.17414 0.029306 0.1123 -0.019927 -0.21819 -0.25136 0.2186 0.11702 0.10232 0.23915 -0.15554 0.50801 0.28487 0.27878 -0.23373 -0.13611 -0.069936 -0.29918 -0.066774 0.16066 -0.068751 -0.018025 0.067089 0.48813 0.25368 0.093609 -0.042213 -0.0041711 0.34014 -0.31226 -0.05416 -0.057442 -0.040325 -0.050375 -0.045293 0.13941 -0.12237 -0.18058 -0.34166 0.10952 -0.019154 -0.14522 -0.086141 -0.30615 0.04244 -0.016184 -0.47956 0.029292 0.31382 0.12737 -0.051963 0.14854 -0.0054478 -0.0042904 -0.11901 0.17362 -0.090412 0.16786 -0.044671 0.12536 0.207 0.03876 -0.14859 -0.078781 0.13568 -0.33148 0.055729 0.37192 -0.19482 -0.03043 -0.30264 -0.2343 0.30474 -0.058708 0.13761 -0.45427 0.45617 0.15339 -0.10877 0.051769 -0.37095 0.20658 -0.12244 -0.037533 0.20986 0.14657 -0.26046 0.54445 -0.25881 -0.016133 -0.019905 0.17571 -0.17977 -0.21072 -0.038441 0.15117 0.51429 0.086922 -0.20333 -0.33368 -0.081349 0.13524 0.23119 -0.15352 0.16239 0.1697 0.22333 0.50995 0.13259 -0.027243 0.13587 -0.25407 0.0044915 0.025988 0.14417 -0.091366 -0.28487 -0.15931 0.23126 0.04905 -0.19477 0.093941 -0.21889 0.26724 -0.074981 -0.068952 0.011924 0.20708 -0.058583 -0.10408 0.33243 -0.41166 -0.1664 0.31988 0.063478 -0.11866 -0.29257 0.15443 0.00015616 0.050489 -0.11312 0.06177 -0.51497 0.32017 0.30862 -0.35862 -0.054969 0.12069 -0.27451 0.19792 0.087288 -0.053577 0.18006 -0.03798 0.13824 -0.079597 -0.12231 -0.025232 -0.012563 0.47316 -0.20778 0.1676 0.32692 0.0023931 0.07153 -0.19399 0.4251 -0.28012 -0.28828 0.063371 0.046363 0.096058 -0.063178 -0.0387 -0.085873 -0.033427 -0.20468 0.074926 0.22989 -0.041396 0.015342 0.026412 0.13232 0.027253 0.21319 0.27497 -0.059628 -0.32552 0.070394 -0.10708 0.46424 -0.016328 0.13089 -0.30327 -0.16976 0.10612 -0.070698 0.18196 0.39195 -0.16584 0.011078 0.22297 -0.21785 0.20991 -0.25342 0.24203 0.63561 -0.15632 0.054304 0.40225 -0.21688 -0.094004 0.13252 -0.22855 0.0012889 -0.14309 -0.14053 -0.23379 -0.093475 -0.137 -0.044754 0.20235 -0.17679 -0.05065 0.022315 -0.10553 -0.075269 -0.068706 -0.17184 -0.15485 -0.16517 0.16443 0.17885 0.33193 0.066288 -0.21021 0.11355 -0.19235 -0.19175 0.16505 0.02122 -0.088148 -0.10059 -0.19786 -0.2346 -0.16639 0.37516 0.017668 0.099274 0.077358 -0.087701 0.31362 0.031745 0.035067 0.0072412 -0.048699 0.15137 -0.26155 -0.1018 0.49994 -0.018932 -0.047905 -0.019066 -0.23005 -0.36822 -0.11467 0.0088547 0.0063744 -0.37516 0.21541 -0.35599 0.1321 -0.30972 0.13459 -0.34691 -0.33118 -0.28713 0.36017 0.22908 0.33837 
femtogramm 0.26397 0.062529 -0.016667 0.082373 0.27636 -0.22578 -0.27122 0.23805 -0.0018073 -0.094811 -0.050732 -0.10731 0.43809 -0.00042897 -0.61721 0.21595 -0.28208 0.42416 0.043135 -0.0087992 0.058027 0.51067 -0.18486 -0.024734 -0.20412 0.071755 -0.59784 0.60125 0.01562 -0.39034 0.48035 0.062597 0.28484 0.020041 0.33047 -0.29376 -0.046319 -0.075078 -0.0036258 -0.22218 -0.23011 0.35496 -0.082996 0.14097 -0.070936 0.1808 0.074518 0.16915 -0.27741 -0.1354 -0.039858 0.023798 0.059247 0.42427 0.21952 -0.19683 -0.32617 -0.079223 -0.062575 0.48764 0.055658 -0.20761 0.41956 0.46599 0.11508 -0.21507 0.61982 0.25389 -0.20252 0.10137 0.041952 0.34036 -0.0059915 0.31344 -0.13484 -0.15834 0.18943 -0.0025263 -0.33879 -0.049981 0.25983 0.082194 0.14229 0.076466 -0.14494 -0.31416 0.20551 -0.18513 0.023667 0.099827 0.2491 0.091027 0.0028668 0.027982 0.045271 0.2045 -0.089459 0.21403 0.16523 -0.06223 -0.22457 -0.055156 -0.27862 0.088914 -0.044236 -0.14606 -0.1245 -0.14329 0.12946 0.06131 0.13452 -0.046581 0.04902 0.10802 -0.091606 -0.1598 0.19711 0.26562 -0.20407 -0.10411 -0.014243 0.14709 0.18454 0.4121 0.020809 0.09738 0.2159 0.099525 0.21298 -0.20431 0.13598 0.091253 0.14058 0.22427 0.14937 -0.24721 -0.11243 0.25318 -0.12781 0.14119 -0.38442 0.086026 -0.054239 0.22212 0.11075 0.14473 0.48804 0.069771 -0.28668 -0.12911 0.053321 0.22742 -0.05594 0.277 -0.44805 -0.28121 -0.29073 0.11324 0.36722 0.25565 0.21268 0.11005 0.22377 0.019607 -0.15095 0.22364 -0.21987 -0.0079909 0.2165 0.16685 0.18385 -0.36391 0.13547 -0.60005 -0.37492 0.115 0.093497 -0.19492 -0.12465 0.083008 -0.23125 -0.0089736 0.1587 -0.11786 -0.32377 0.11037 -0.26899 -0.36211 -0.3487 0.25167 0.52934 0.0019506 -0.065298 -0.042691 0.012477 -0.4036 -0.42142 -0.075415 0.012197 0.18785 -0.39706 0.024401 0.17428 0.064085 -0.17103 0.19828 0.041963 -0.51478 0.21587 0.084703 0.55008 0.022437 0.26587 -0.14559 -0.58595 0.42797 0.1479 -0.024075 -0.50243 0.18566 0.59583 -0.095755 -0.038415 0.30878 -0.12805 0.25867 -0.10197 0.12925 0.064523 0.3564 -0.0093644 -0.0050595 -0.3994 -0.0164 -0.046717 0.041379 -0.12036 -0.015355 0.042971 -0.24888 -0.076439 0.015262 -0.26293 0.23079 -0.12522 -0.31857 0.55358 0.12076 -0.29795 -0.24811 0.077586 -0.30344 -0.01104 0.019657 -0.13662 -0.45764 0.12748 -0.47888 -0.13637 0.29569 0.014242 -0.16626 -0.06419 0.058627 0.05693 0.57251 -0.31245 0.074405 -0.25827 -0.073256 -0.051753 0.2969 0.47023 -0.20746 0.027983 0.1242 0.017409 0.11056 -0.19415 0.56011 0.16946 -0.11002 -0.004833 -0.32859 0.58776 -0.35025 -0.068278 -0.19022 -0.045454 0.10984 -0.060707 -0.0045571 0.40647 0.36983 0.22664 0.38758 -0.61381 -0.09528 -0.048984 0.41591 
forstlehrlinge -0.4241 0.46104 0.19217 -0.3336 -0.15349 0.72504 -0.56489 -0.15789 -0.42171 0.10654 0.24983 0.08807 0.15128 -0.56741 -0.22757 0.16765 -0.041335 0.24998 0.20882 0.14869 0.19753 -0.062692 -0.20112 -0.41134 0.2118 -0.3076 -0.32712 -0.025769 -0.0043768 0.20199 -0.12863 0.31668 0.41502 0.091902 0.32688 -0.1672 0.028341 -0.69272 -0.090662 -0.11709 -0.12613 0.067458 -0.41706 0.55915 -0.06198 -0.44155 -0.31133 0.15696 0.17638 0.16309 -0.019889 -0.55596 0.24443 0.076759 0.068022 0.26221 -0.19001 -0.14457 0.13651 -0.14266 0.61982 -0.071712 -0.033745 -0.60735 -0.2406 -0.16781 -0.54873 -0.23497 0.12698 0.40517 -0.15587 0.25114 0.18935 0.69199 -0.02163 -0.21182 -0.15996 0.022215 0.31977 0.076101 0.39536 0.31556 -0.082297 0.37683 0.38202 -0.048184 0.27895 -0.1113 -0.091084 0.13603 -0.26011 -0.24844 0.039977 0.10377 0.38063 -0.24044 0.13509 -0.17689 -0.57491 0.067139 0.23762 0.16405 0.042775 -0.14387 0.31754 0.16219 -0.27248 0.33968 -0.21461 0.0015492 -0.37572 0.12076 0.1107 0.22145 0.18425 -0.18239 -0.33135 0.040181 -0.25829 -0.058425 0.29073 0.06417 -0.075732 0.14411 0.12206 0.043403 0.10767 0.58288 -0.26614 -0.05151 0.28576 -0.075705 -0.073319 0.53239 0.14824 0.125 0.11077 0.27721 0.68828 0.17379 -0.12358 0.34372 -0.30977 0.77936 -0.061332 -0.36893 -0.0062266 -0.43082 0.43613 -0.038628 0.38347 0.0099204 0.11702 0.54007 -0.68022 -0.49529 -0.70512 0.12934 0.077147 0.095246 0.18714 -0.24171 -0.4163 0.49733 -0.20479 -0.041252 0.018208 0.0060013 -0.1478 -0.051482 0.17919 0.20068 0.66763 0.30633 -0.19746 -0.37129 0.38185 0.21865 -0.10995 0.21195 0.09015 0.2613 -0.28229 -0.11369 -0.29391 -0.18631 0.15931 -0.37517 -0.10801 0.26168 0.037883 0.12958 0.23464 0.054686 -0.62996 -0.47554 -0.40363 0.43649 -0.30694 -0.42253 -0.26891 0.3899 -0.081803 0.20814 -0.23491 0.34319 0.082761 0.12462 0.13506 -0.33834 0.19379 -0.011151 -0.0481 0.10425 -0.17982 0.14236 0.052382 0.080178 -0.20151 -0.29746 0.17013 0.14929 -0.01686 -0.13747 -0.4473 0.32616 0.64867 0.27035 -0.043098 -0.0036619 -0.0035692 -0.17256 0.0014049 0.071606 0.19865 -0.28529 0.058328 -0.45759 -0.031922 -0.055178 -0.037422 -0.41253 -0.15621 -0.19114 -0.08053 -0.18863 -0.034817 0.27907 -0.099299 -0.069928 0.19961 0.06919 0.38627 -0.088044 0.026775 -0.072922 -0.11055 0.041582 -0.10345 0.21561 0.0028254 -0.3625 0.19439 0.18999 0.27442 -0.19056 -0.021229 -0.37642 -0.013969 0.060124 0.35196 0.38159 0.043366 -0.10153 -0.40279 -0.24442 0.1341 -0.085946 -0.38365 0.099268 0.51143 -0.22945 -0.074549 -0.24249 -0.012037 -0.19584 -0.46733 -0.22825 -0.1816 0.50666 -0.013308 -0.24389 -0.28053 0.29611 -0.56647 0.21834 0.065804 -0.1935 0.50587 -0.042361 
sternenplatz -0.00088482 -0.047538 -0.035319 0.40585 0.40523 -0.17945 0.19154 -0.12837 0.041353 0.16187 0.082425 -0.0017188 0.067384 -0.039821 0.21667 -0.20121 0.29459 -0.065279 0.11907 0.018472 0.0017491 0.16606 -0.095995 -0.16585 0.017575 -0.26254 0.090523 -0.17082 -0.10655 0.35924 -0.46706 -0.12497 -0.07175 0.0078191 -0.1869 0.09047 -0.05903 0.075657 0.31585 0.11196 0.25392 -0.20345 -0.46537 0.083532 -0.20785 0.76348 0.12761 -0.12855 -0.067178 0.13965 0.097899 -0.57756 0.080669 0.40288 0.4042 0.15511 0.10127 -0.11909 0.11333 -0.21197 0.38676 -0.12796 0.40029 0.18468 -0.7271 0.079102 0.18409 0.13645 0.21641 0.16185 -0.17727 -0.13722 0.35472 -0.033799 0.0045942 0.22555 0.020619 0.15783 0.037901 -0.22791 0.26607 0.080309 0.078882 -0.05605 -0.16486 -0.34058 0.3177 0.11039 -0.37012 0.02186 -0.19158 0.11035 0.027708 -0.071812 0.10482 0.15055 0.48375 0.19945 0.012098 -0.28014 0.11509 0.14343 0.04048 0.079788 0.13529 -0.05544 0.046134 0.071916 -0.37425 0.14024 -0.038084 0.25135 0.024592 0.60279 -0.039813 0.01539 0.27805 0.63706 -0.18358 -0.29465 -0.05107 -0.067444 0.082146 0.18886 -0.23944 0.35834 0.1649 0.44438 0.011344 -0.0014326 0.30224 -0.37199 -0.14042 0.0065341 0.14335 0.12189 -0.076599 -0.2029 0.45528 0.060625 -0.26471 0.16366 -0.11632 0.12321 0.19584 -0.23281 0.087584 0.050002 -0.019601 -0.33806 0.34195 0.23737 -0.18063 -0.072288 -0.25307 -0.42535 -0.90269 0.46762 0.41827 -0.0060859 -0.10689 -0.097001 -0.2201 -0.034981 -0.052838 0.099183 -0.37229 -0.024838 -0.018653 -0.0090215 0.085067 -0.10057 0.13276 -0.61544 -0.33558 -0.072719 -0.025813 -0.1537 -0.072754 0.28796 -0.044394 -0.20141 -0.068253 0.4267 0.34574 0.042476 0.10202 -0.34477 -0.18974 0.23673 0.053362 -0.52995 -0.20116 0.10407 -0.27538 -0.36663 -0.28355 0.81194 -0.37378 0.10812 -0.32254 -0.31805 0.49005 0.10289 0.20014 0.079025 -0.1705 0.10766 0.14191 -0.056321 0.38416 -0.10523 0.046741 0.1228 -0.40777 -0.031898 -0.15346 -0.030982 0.00082875 0.19713 0.19857 0.10331 0.11483 0.15453 0.25641 0.21595 0.11773 0.065248 0.18601 0.3334 0.042679 0.11932 0.26104 -0.28889 -0.24401 -0.30821 -0.016158 -0.069816 0.30578 0.1873 0.37177 0.022659 0.01205 -0.37496 -0.050074 -0.32554 0.39315 0.10611 0.239 0.17553 -0.42282 0.18041 0.28543 0.053267 0.37633 -0.4656 -0.054205 -0.43278 -0.18892 0.61741 0.57724 -0.52365 -0.10456 0.31896 -0.11554 0.43063 0.24699 0.45052 0.35753 -0.26363 0.43925 0.42011 0.072791 0.17861 -0.23638 0.28646 0.10383 -0.030839 0.12727 0.44785 0.27326 -0.024717 -0.055463 -0.2162 0.40731 -0.27983 -0.23263 -0.52658 -0.67449 0.19505 0.069268 -0.18092 0.27717 0.9383 -0.23123 -0.11562 -0.071167 0.0090136 0.030237 0.27829 
memmingen/archiv/ -0.14692 0.69328 0.10264 -0.17691 0.092753 0.65431 0.11823 0.46047 0.019894 0.13783 0.41986 0.017673 0.14483 0.051144 0.011724 -0.1679 -0.2811 0.14345 -0.90096 -0.24928 -0.3669 0.35623 0.57514 -0.030628 0.46611 -0.45476 0.10612 -0.20277 -0.20976 -0.48334 0.28901 0.006444 -0.38518 -0.57614 -0.049755 -0.15242 0.32075 -0.2431 0.45947 -0.11702 0.088324 0.78064 -0.010914 -0.024663 -0.11292 0.1303 -0.10326 -0.0074426 0.006093 -0.027845 0.73105 -0.5514 -0.22747 0.24894 0.29197 -0.34169 0.17847 0.010839 0.38015 0.43519 -0.34457 0.28306 0.017424 0.38031 -0.15769 -0.2774 -0.57491 -0.20106 0.24867 0.0091119 0.80614 -0.026452 -0.07557 0.22035 -0.46473 -0.57942 0.24213 -0.013375 -0.36785 0.0086059 0.10362 0.51405 0.061313 -0.352 -0.25812 -0.26746 -0.25219 0.56021 -0.43956 0.00032693 -0.2911 -0.11906 0.42108 -0.83906 -0.45875 -0.71786 0.47547 -0.1926 -0.077713 0.19319 -0.59996 0.41459 0.26368 0.55702 0.025329 0.13582 0.34568 0.25221 0.30375 -0.17285 0.52105 -0.034034 -0.41491 0.58143 -0.31259 0.1064 0.33235 0.85027 -0.24867 0.20638 -0.18277 0.17686 0.12549 0.62273 -0.55892 0.45721 0.24255 0.41409 0.033024 -0.075772 0.26238 -0.17262 -0.47563 0.31008 0.081155 0.34861 -0.9525 -0.37742 0.25119 0.38044 -0.32886 0.24749 -0.74312 0.54387 0.3296 -0.72516 0.41876 0.027277 -0.20397 0.10777 0.48538 -0.0012069 0.39359 0.076119 -0.24317 -0.065148 -0.87764 0.53433 0.77594 0.53996 0.12613 0.010869 -0.10081 0.2872 0.24271 0.090567 -0.19425 0.092215 -0.10087 0.89294 0.13531 -0.025784 -0.17395 -0.35767 -0.028268 0.11429 0.032743 -0.55887 0.23394 0.32675 0.13811 0.63427 -0.19051 0.16108 -0.24214 0.92698 0.022255 0.0552 -0.75048 0.21403 0.55937 -0.75519 0.2275 0.01845 -0.052475 -0.57008 0.94468 0.04462 -0.15872 0.01184 0.18865 0.072936 -0.085447 0.11535 -0.15727 -0.3204 0.1142 -0.26149 0.2521 0.16484 0.28636 -0.1241 0.20183 0.17574 -0.30966 0.47987 0.035629 0.0083037 0.47745 -0.30686 -0.54429 0.083946 0.027757 0.3812 -0.0064824 0.44327 0.21841 -0.35349 -0.26337 -0.14448 0.36116 0.38844 -0.2472 0.16887 0.11161 -0.0032416 -0.79801 0.0055406 0.10011 -0.50349 0.18885 -0.32225 -0.065034 0.18753 0.078253 -0.14157 0.083835 -0.11398 -0.22336 -0.26598 0.054225 0.3586 0.35739 -0.23924 0.18079 -0.27417 0.069983 -0.1249 -0.31839 0.62957 0.68801 -0.0073669 0.31017 0.25461 -0.38998 -0.061017 0.18147 0.19645 0.2945 -0.44028 0.73217 0.086579 0.13832 -0.22608 0.082797 -0.071738 0.12171 -0.4657 -0.081041 0.46317 0.59911 -0.28742 0.12066 -0.11623 0.3181 0.086216 -0.6877 -0.087216 0.18879 -0.28992 -0.13129 -0.20968 -0.028615 -0.021827 -0.21936 -0.51337 -0.16088 -0.094755 -0.18596 0.091981 
